{"learner":{"attributes":{"scikit_learn":"{\"_estimator_type\": \"classifier\"}"},"feature_names":["Age","Income","LoanAmount","CreditScore","MonthsEmployed","NumCreditLines","InterestRate","LoanTerm","DTIRatio","Education","EmploymentType","MaritalStatus","HasMortgage","HasDependents","LoanPurpose","HasCoSigner"],"feature_types":["int","float","float","int","int","int","float","int","float","int","int","int","int","int","int","int"],"gradient_booster":{"model":{"cats":{"enc":[],"feature_segments":[],"sorted_idx":[]},"gbtree_model_param":{"num_parallel_tree":"1","num_trees":"100"},"iteration_indptr":[0,1,2,3,4,5,6,7,8,9,10,11,12,13,14,15,16,17,18,19,20,21,22,23,24,25,26,27,28,29,30,31,32,33,34,35,36,37,38,39,40,41,42,43,44,45,46,47,48,49,50,51,52,53,54,55,56,57,58,59,60,61,62,63,64,65,66,67,68,69,70,71,72,73,74,75,76,77,78,79,80,81,82,83,84,85,86,87,88,89,90,91,92,93,94,95,96,97,98,99,100],"tree_info":[0,0,0,0,0,0,0,0,0,0,0,0,0,0,0,0,0,0,0,0,0,0,0,0,0,0,0,0,0,0,0,0,0,0,0,0,0,0,0,0,0,0,0,0,0,0,0,0,0,0,0,0,0,0,0,0,0,0,0,0,0,0,0,0,0,0,0,0,0,0,0,0,0,0,0,0,0,0,0,0,0,0,0,0,0,0,0,0,0,0,0,0,0,0,0,0,0,0,0,0],"trees":[{"base_weights":[-2.1887332E-2,-1.21806204E-1,1.1909488E0,2.096673E0,-1.1881565E0,3.5055585E0,-5.3846043E-2,3.205441E-2,-1.2110632E-1,-1.19237505E-1,4.7270137E-1,-1.2026602E-1,1.0833662E0,5.8869172E-2,-6.2126942E-2,3.2734647E0,-1.1852131E-1,-1.0871444E-1,4.6259734E-1],"categories":[],"categories_nodes":[],"categories_segments":[],"categories_sizes":[],"default_left":[0,0,0,0,0,0,0,0,0,0,0,0,0,0,0,0,0,0,0],"id":0,"left_children":[1,-1,3,5,7,9,11,13,-1,-1,-1,-1,15,-1,-1,17,-1,-1,-1],"loss_changes":[1.3704985E3,0E0,1.01326886E3,1.0306412E3,3.6717987E0,1.1848474E3,1.7846242E2,1.5910201E0,0E0,0E0,0E0,0E0,3.4507205E2,0E0,0E0,2.1266776E2,0E0,0E0,0E0],"parents":[2147483647,0,0,2,2,3,3,4,4,5,5,6,6,7,7,12,12,15,15],"right_children":[2,-1,4,6,8,10,12,14,-1,-1,-1,-1,16,-1,-1,18,-1,-1,-1],"split_conditions":[6.51E2,-1.21806204E-1,3.9961457E-1,1E0,4.0125453E-1,1.3E1,2E0,6E1,-1.2110632E-1,-1.19237505E-1,4.7270137E-1,-1.2026602E-1,3E0,5.8869172E-2,-6.2126942E-2,1.3E1,-1.1852131E-1,-1.0871444E-1,4.6259734E-1],"split_indices":[3,0,8,10,8,4,10,7,0,0,0,0,10,0,0,4,0,0,0],"split_type":[0,0,0,0,0,0,0,0,0,0,0,0,0,0,0,0,0,0,0],"sum_hessian":[9.426737E2,4.745946E2,4.680791E2,3.3910193E2,1.2897719E2,2.0449771E2,1.3460422E2,2.369271E0,1.2660792E2,4.220264E1,1.6229506E2,6.693191E1,6.76723E1,1.3327149E0,1.0365561E0,3.4206352E1,3.3465954E1,8.144369E0,2.6061981E1],"tree_param":{"num_deleted":"0","num_feature":"16","num_nodes":"19","size_leaf_vector":"1"}},{"base_weights":[-1.136158E-3,4.0489504E-1,-1.1785635E0,1.0084375E0,-6.12181E-1,-3.2809007E-1,-1.1904421E-1,-1.180289E-1,1.4689438E0,-1.1860967E-1,-8.069292E-2,-5.9644675E-1,2.6804505E-2,1.5040178E0,5.2028674E-1,8.3314294E-1,-1.1768229E-1,-1.0637353E-2,-7.4504144E-2,1.823485E0,1.4093548E0,1.2788165E-1,1.5577196E0,-1.1139077E-1,1.267831E0,1.899712E-1,1.0735067E-1,1.443411E-1,4.3041207E-2,-3.3536594E-2,6.553771E-2,2.6437892E-2,1.9807097E-1,2.135899E-2,1.3342738E-1],"categories":[],"categories_nodes":[],"categories_segments":[],"categories_sizes":[],"default_left":[0,0,0,0,0,0,0,0,0,0,0,0,0,0,0,0,0,0,0,0,0,0,0,0,0,0,0,0,0,0,0,0,0,0,0],"id":1,"left_children":[1,3,5,7,9,11,-1,-1,13,-1,15,17,-1,19,21,23,-1,-1,-1,25,27,29,31,-1,33,-1,-1,-1,-1,-1,-1,-1,-1,-1,-1],"loss_changes":[4.5704657E2,4.3698935E2,2.085968E0,4.51786E2,8.084813E1,9.2091954E-1,0E0,0E0,1.1506714E1,0E0,1.400618E2,1.8221843E-1,0E0,8.185486E0,5.784052E0,6.599434E1,0E0,0E0,0E0,2.4135742E0,8.672058E0,3.0918484E0,1.6340647E0,0E0,4.117256E0,0E0,0E0,0E0,0E0,0E0,0E0,0E0,0E0,0E0,0E0],"parents":[2147483647,0,0,1,1,2,2,3,3,4,4,5,5,8,8,10,10,11,11,13,13,14,14,15,15,19,19,20,20,21,21,22,22,24,24],"right_children":[2,4,6,8,10,12,-1,-1,14,-1,16,18,-1,20,22,24,-1,-1,-1,26,28,30,32,-1,34,-1,-1,-1,-1,-1,-1,-1,-1,-1,-1],"split_conditions":[3.9961457E-1,1E0,4.0125453E-1,1.3E1,2E0,5E0,-1.1904421E-1,-1.180289E-1,1.3443189E1,-1.1860967E-1,3E0,7.6218257E0,2.6804505E-2,5.5592284E0,6E0,1.3E1,-1.1768229E-1,-1.0637353E-2,-7.4504144E-2,1.58E2,8E0,7E1,1E0,-1.1139077E-1,1.4832078E-1,1.899712E-1,1.0735067E-1,1.443411E-1,4.3041207E-2,-3.3536594E-2,6.553771E-2,2.6437892E-2,1.9807097E-1,2.135899E-2,1.3342738E-1],"split_indices":[8,10,8,4,10,5,0,0,6,0,10,6,0,6,5,4,0,0,0,4,5,4,9,0,8,0,0,0,0,0,0,0,0,0,0],"split_type":[0,0,0,0,0,0,0,0,0,0,0,0,0,0,0,0,0,0,0,0,0,0,0,0,0,0,0,0,0,0,0,0,0,0,0],"sum_hessian":[9.540217E2,7.098789E2,2.4414284E2,4.4551474E2,2.6436414E2,3.7572193E0,2.4038562E2,7.717049E1,3.6834427E2,1.26516464E2,1.3784767E2,2.5905378E0,1.1666814E0,3.546468E2,1.3697479E1,7.530574E1,6.254194E1,1.0019423E0,1.5885955E0,7.6891525E1,2.7775525E2,1.0753337E1,2.944142E0,1.3458774E1,6.1846966E1,6.840582E1,8.485705E0,2.6795886E2,9.796392E0,5.919261E0,4.8340764E0,1.1260719E0,1.8180702E0,3.9166493E0,5.7930313E1],"tree_param":{"num_deleted":"0","num_feature":"16","num_nodes":"35","size_leaf_vector":"1"}},{"base_weights":[-8.286241E-3,-1.1934786E-1,9.753074E-1,1.5893204E0,-1.1471295E0,2.314644E0,1.2156012E-1,-2.5729683E-1,-1.1632233E-1,2.3320065E-1,6.558395E-1,-1.153424E-1,1.0802923E0,-6.895209E-2,3.5900142E-2,1.3463257E-1,-3.7069004E-2,2.3994172E0,-1.13414146E-1,2.5332335E-2,2.4439211E-1],"categories":[],"categories_nodes":[],"categories_segments":[],"categories_sizes":[],"default_left":[0,0,0,0,0,0,0,0,0,0,0,0,0,0,0,0,0,0,0,0,0],"id":2,"left_children":[1,-1,3,5,7,9,11,13,-1,-1,15,-1,17,-1,-1,-1,-1,19,-1,-1,-1],"loss_changes":[1.0996315E3,0E0,6.736094E2,4.2581506E2,1.3654633E0,6.18396E0,1.6434409E2,1.1396788E0,0E0,0E0,3.4515028E0,0E0,2.2669992E2,0E0,0E0,0E0,0E0,4.000946E0,0E0,0E0,0E0],"parents":[2147483647,0,0,2,2,3,3,4,4,5,5,6,6,7,7,10,10,12,12,17,17],"right_children":[2,-1,4,6,8,10,12,14,-1,-1,16,-1,18,-1,-1,-1,-1,20,-1,-1,-1],"split_conditions":[6.51E2,-1.1934786E-1,3.9961457E-1,1E0,4.0125453E-1,2.137563E5,2E0,7.28E2,-1.1632233E-1,2.3320065E-1,7.35E2,-1.153424E-1,3E0,-6.895209E-2,3.5900142E-2,1.3463257E-1,-3.7069004E-2,1.2772705E-1,-1.13414146E-1,2.5332335E-2,2.4439211E-1],"split_indices":[3,0,8,10,8,1,10,3,0,0,3,0,10,0,0,0,0,8,0,0,0],"split_type":[0,0,0,0,0,0,0,0,0,0,0,0,0,0,0,0,0,0,0,0,0],"sum_hessian":[9.412858E2,4.267977E2,5.1448816E2,3.9924054E2,1.152476E2,2.6681265E2,1.324279E2,2.3491378E0,1.1289846E2,2.6364728E2,3.1653705E0,5.675215E1,7.567574E1,1.310937E0,1.0382007E0,1.7061872E0,1.4591832E0,4.7372623E1,2.8303122E1,1.0983732E0,4.627425E1],"tree_param":{"num_deleted":"0","num_feature":"16","num_nodes":"21","size_leaf_vector":"1"}},{"base_weights":[-5.676948E-3,-1.1711424E-1,8.691692E-1,1.3392982E0,-1.143017E-1,1.906457E0,5.4094955E-2,1.9133693E0,3.9411884E-2,-1.13390364E-1,8.824622E-1,1.9210418E-1,9.006057E-1,1.9363937E0,-1.114156E-1,1.5751824E-1,-3.0968377E-2,2.0109232E-1,8.4716484E-2],"categories":[],"categories_nodes":[],"categories_segments":[],"categories_sizes":[],"default_left":[0,0,0,0,0,0,0,0,0,0,0,0,0,0,0,0,0,0,0],"id":3,"left_children":[1,-1,3,5,-1,7,9,11,-1,-1,13,-1,15,17,-1,-1,-1,-1,-1],"loss_changes":[9.448196E2,0E0,5.0226715E2,3.1299268E2,0E0,2.360962E0,1.3143854E2,5.72876E-1,0E0,0E0,1.6767162E2,0E0,3.8441386E0,2.5052643E0,0E0,0E0,0E0,0E0,0E0],"parents":[2147483647,0,0,2,2,3,3,5,5,6,6,7,7,10,10,12,12,13,13],"right_children":[2,-1,4,6,-1,8,10,12,-1,-1,14,-1,16,18,-1,-1,-1,-1,-1],"split_conditions":[6.51E2,-1.1711424E-1,4.0125453E-1,1E0,-1.143017E-1,3.9961457E-1,2E0,2.137563E5,3.9411884E-2,-1.13390364E-1,3E0,1.9210418E-1,7.34E2,1.323235E5,-1.114156E-1,1.5751824E-1,-3.0968377E-2,2.0109232E-1,8.4716484E-2],"split_indices":[3,0,8,10,0,8,10,1,0,0,10,0,3,1,0,0,0,0,0],"split_type":[0,0,0,0,0,0,0,0,0,0,0,0,0,0,0,0,0,0,0],"sum_hessian":[9.246561E2,3.9632947E2,5.283267E2,4.2853726E2,9.9789444E1,2.9699176E2,1.315455E2,2.9537653E2,1.6152248E0,5.3890247E1,7.765526E1,2.9226556E2,3.1109688E0,5.084596E1,2.6809298E1,1.8039902E0,1.3069787E0,4.679768E1,4.0482783E0],"tree_param":{"num_deleted":"0","num_feature":"16","num_nodes":"19","size_leaf_vector":"1"}},{"base_weights":[-2.4755944E-2,-1.1516923E-1,7.31145E-1,-1.2055277E-1,1.1141527E0,1.5734813E0,-1.0994986E0,2.091103E-1,2.597169E-1,-5.0773416E-3,-1.12290636E-1,-1.1108947E-1,1.1161674E0,2.1003723E-1,-1.0852957E-1],"categories":[],"categories_nodes":[],"categories_segments":[],"categories_sizes":[],"default_left":[0,0,0,0,0,0,0,0,0,0,0,0,0,0,0],"id":4,"left_children":[1,-1,3,-1,5,7,9,-1,11,-1,-1,-1,13,-1,-1],"loss_changes":[7.6918304E2,0E0,4.0223914E2,0E0,4.6106445E2,2.5414972E2,1.8630905E0,0E0,1.26841644E2,0E0,0E0,0E0,1.4603857E2,0E0,0E0],"parents":[2147483647,0,0,2,2,4,4,5,5,6,6,8,8,12,12],"right_children":[2,-1,4,-1,6,8,10,-1,12,-1,-1,-1,14,-1,-1],"split_conditions":[6.51E2,-1.1516923E-1,1.3E1,-1.2055277E-1,3.9961457E-1,1E0,4.0125453E-1,2.091103E-1,2E0,-5.0773416E-3,-1.12290636E-1,-1.1108947E-1,3E0,2.1003723E-1,-1.0852957E-1],"split_indices":[3,0,4,0,8,10,8,0,10,0,0,0,10,0,0],"split_type":[0,0,0,0,0,0,0,0,0,0,0,0,0,0,0],"sum_hessian":[9.0096515E2,3.6149945E2,5.394657E2,8.87178E1,4.507479E2,3.735302E2,7.721766E1,2.6753146E2,1.0599877E2,1.7550689E0,7.546259E1,4.0649185E1,6.534959E1,4.5191715E1,2.0157875E1],"tree_param":{"num_deleted":"0","num_feature":"16","num_nodes":"15","size_leaf_vector":"1"}},{"base_weights":[-2.3756543E-2,-1.13464296E-1,6.824394E-1,-1.1785034E-1,1.0175756E0,1.393328E0,-1.1067455E-1,-5.347781E-2,1.4061612E0,-7.822899E-2,5.2457254E-2,1.4155592E-1,4.289473E-1,9.2076354E-2,-2.6777271E-2],"categories":[],"categories_nodes":[],"categories_segments":[],"categories_sizes":[],"default_left":[0,0,0,0,0,0,0,0,0,0,0,0,0,0,0],"id":5,"left_children":[1,-1,3,-1,5,7,-1,9,11,-1,-1,-1,13,-1,-1],"loss_changes":[6.8330444E2,0E0,3.3331226E2,0E0,3.6216614E2,7.2110596E0,0E0,2.2397692E0,2.8916016E0,0E0,0E0,0E0,1.9817252E0,0E0,0E0],"parents":[2147483647,0,0,2,2,4,4,5,5,7,7,8,8,12,12],"right_children":[2,-1,4,-1,6,8,-1,10,12,-1,-1,-1,14,-1,-1],"split_conditions":[6.51E2,-1.13464296E-1,1.3E1,-1.1785034E-1,4.0125453E-1,2.0572752E4,-1.1067455E-1,1E0,3.9825067E-1,-7.822899E-2,5.2457254E-2,1.4155592E-1,1E0,9.2076354E-2,-2.6777271E-2],"split_indices":[3,0,4,0,8,1,0,9,8,0,0,0,12,0,0],"split_type":[0,0,0,0,0,0,0,0,0,0,0,0,0,0,0],"sum_hessian":[8.6901544E2,3.3750076E2,5.3151465E2,8.0728615E1,4.50786E2,3.833268E2,6.74592E1,3.3423796E0,3.7998444E2,1.3221165E0,2.0202632E0,3.759206E2,4.0638504E0,2.1937258E0,1.8701247E0],"tree_param":{"num_deleted":"0","num_feature":"16","num_nodes":"15","size_leaf_vector":"1"}},{"base_weights":[-2.4740566E-2,-1.1199068E-1,6.1566484E-1,9.1758174E-1,-1.0859374E0,1.2858514E0,-2.1336164E-2,-4.087683E-2,-1.095727E-1,2.1142735E-1,1.2937467E0,-1.1124746E-1,6.333807E-1,9.600658E-2,-8.250855E-2,1.4833062E0,1.242797E0,1.3305852E0,-1.0902301E-1,4.758462E-2,1.5477668E-1,1.2519953E-1,2.5789205E-2,1.692698E-2,1.3617262E-1],"categories":[],"categories_nodes":[],"categories_segments":[],"categories_sizes":[],"default_left":[0,0,0,0,0,0,0,0,0,0,0,0,0,0,0,0,0,0,0,0,0,0,0,0,0],"id":6,"left_children":[1,-1,3,5,7,9,11,-1,-1,13,15,-1,17,-1,-1,19,21,23,-1,-1,-1,-1,-1,-1,-1],"loss_changes":[5.8662537E2,0E0,2.7215875E2,1.552185E2,8.242035E-2,2.4613037E0,9.173788E1,0E0,0E0,3.5446339E0,1.2456055E0,0E0,9.792206E1,0E0,0E0,3.3280945E0,2.0167236E0,1.8528748E0,0E0,0E0,0E0,0E0,0E0,0E0,0E0],"parents":[2147483647,0,0,2,2,3,3,4,4,5,5,6,6,9,9,10,10,12,12,15,15,16,16,17,17],"right_children":[2,-1,4,6,8,10,12,-1,-1,14,16,-1,18,-1,-1,20,22,24,-1,-1,-1,-1,-1,-1,-1],"split_conditions":[6.51E2,-1.1199068E-1,3.9961457E-1,1E0,4.0125453E-1,2.0572752E4,2E0,-4.087683E-2,-1.095727E-1,4.8E1,6.74E2,-1.1124746E-1,3E0,9.600658E-2,-8.250855E-2,1.5387729E-1,2.137563E5,1.2772705E-1,-1.0902301E-1,4.758462E-2,1.5477668E-1,1.2519953E-1,2.5789205E-2,1.692698E-2,1.3617262E-1],"split_indices":[3,0,8,10,8,1,10,0,0,7,3,0,10,0,0,8,1,8,0,0,0,0,0,0,0],"split_type":[0,0,0,0,0,0,0,0,0,0,0,0,0,0,0,0,0,0,0,0,0,0,0,0,0],"sum_hessian":[8.3443964E2,3.0762207E2,5.2681757E2,4.4782098E2,7.899656E1,3.2139246E2,1.2642853E2,1.7350469E0,7.726151E1,2.5471544E0,3.188453E2,4.7150032E1,7.9278496E1,1.5217787E0,1.0253757E0,6.1588963E1,2.5725635E2,5.6608322E1,2.2670174E1,4.207747E0,5.7381218E1,2.5460735E2,2.6490026E0,1.6463863E0,5.4961937E1],"tree_param":{"num_deleted":"0","num_feature":"16","num_nodes":"25","size_leaf_vector":"1"}},{"base_weights":[-4.1042287E-2,-1.1063554E-1,5.3484E-1,8.057577E-1,-1.08383976E-1,1.1439807E0,-8.6933166E-2,1.2517467E0,1.0143559E0,-1.0978241E-1,5.1697075E-1,1.2791228E0,2.607453E-1,2.5173774E-1,1.0481588E0,1.1351932E0,-1.0730201E-1,1.5392475E-1,1.21222116E-1,9.259207E-2,-3.707053E-2,1.04879715E-1,-3.8457092E-2,1.6320147E-2,1.06916785E-1,-1.4989358E-2,1.1747553E-1],"categories":[],"categories_nodes":[],"categories_segments":[],"categories_sizes":[],"default_left":[0,0,0,0,0,0,0,0,0,0,0,0,0,0,0,0,0,0,0,0,0,0,0,0,0,0,0],"id":7,"left_children":[1,-1,3,5,-1,7,9,11,13,-1,15,17,19,21,23,25,-1,-1,-1,-1,-1,-1,-1,-1,-1,-1,-1],"loss_changes":[4.9074313E2,0E0,2.2859206E2,1.3457892E2,0E0,3.2435303E0,7.584844E1,4.336731E0,3.6530151E0,0E0,7.77684E1,1.0449219E0,2.8145378E0,4.3415685E0,2.5246582E0,3.051628E0,0E0,0E0,0E0,0E0,0E0,0E0,0E0,0E0,0E0,0E0,0E0],"parents":[2147483647,0,0,2,2,3,3,5,5,6,6,7,7,8,8,10,10,11,11,12,12,13,13,14,14,15,15],"right_children":[2,-1,4,6,-1,8,10,12,14,-1,16,18,20,22,24,26,-1,-1,-1,-1,-1,-1,-1,-1,-1,-1,-1],"split_conditions":[6.51E2,-1.1063554E-1,4.0125453E-1,1E0,-1.08383976E-1,7.25E2,2E0,1.3443189E1,6.808656E3,-1.0978241E-1,3E0,4.99054E0,6.81E2,3.6E1,2.0961354E4,1.3424404E-1,-1.0730201E-1,1.5392475E-1,1.21222116E-1,9.259207E-2,-3.707053E-2,1.04879715E-1,-3.8457092E-2,1.6320147E-2,1.06916785E-1,-1.4989358E-2,1.1747553E-1],"split_indices":[3,0,8,10,0,3,10,6,2,0,10,6,3,7,1,8,0,0,0,0,0,0,0,0,0,0,0],"split_type":[0,0,0,0,0,0,0,0,0,0,0,0,0,0,0,0,0,0,0,0,0,0,0,0,0,0,0],"sum_hessian":[7.9794934E2,2.7967078E2,5.1827856E2,4.444015E2,7.3877075E1,3.2208743E2,1.2231408E2,1.7114566E2,1.5094176E2,4.543737E1,7.687671E1,1.66262E2,4.8836784E0,6.7650237E0,1.4417673E2,5.5559875E1,2.1316833E1,2.9510984E1,1.36751E2,2.151223E0,2.7324553E0,2.7153912E0,4.049633E0,3.5467563E0,1.4062997E2,1.5760612E0,5.3983814E1],"tree_param":{"num_deleted":"0","num_feature":"16","num_nodes":"27","size_leaf_vector":"1"}},{"base_weights":[-4.8596382E-2,-1.09476425E-1,4.8177835E-1,-1.1962705E-1,7.8928053E-1,1.0553845E0,-1.0381473E0,1.3824023E0,1.139262E-1,-1.0066309E-2,-1.0683711E-1,1.4650892E0,1.277788E0,-1.0813452E-1,7.418199E-1,8.468631E-2,1.4926325E-1,7.594187E-2,1.3150854E-1,1.4100121E-1,-1.0543995E-1],"categories":[],"categories_nodes":[],"categories_segments":[],"categories_sizes":[],"default_left":[0,0,0,0,0,0,0,0,0,0,0,0,0,0,0,0,0,0,0,0,0],"id":8,"left_children":[1,-1,3,-1,5,7,9,11,13,-1,-1,15,17,-1,19,-1,-1,-1,-1,-1,-1],"loss_changes":[4.274338E2,0E0,2.6475168E2,0E0,2.1150003E2,1.1627283E2,1.465023E0,5.5511475E-1,7.4790474E1,0E0,0E0,1.2883911E0,1.5474243E0,0E0,7.9771774E1,0E0,0E0,0E0,0E0,0E0,0E0],"parents":[2147483647,0,0,2,2,4,4,5,5,6,6,7,7,8,8,11,11,12,12,14,14],"right_children":[2,-1,4,-1,6,8,10,12,14,-1,-1,16,18,-1,20,-1,-1,-1,-1,-1,-1],"split_conditions":[6.51E2,-1.09476425E-1,1.3E1,-1.1962705E-1,3.9961457E-1,1E0,4.0125453E-1,7.25E2,2E0,-1.0066309E-2,-1.0683711E-1,2E0,7.31E2,-1.0813452E-1,3E0,8.468631E-2,1.4926325E-1,7.594187E-2,1.3150854E-1,1.4100121E-1,-1.0543995E-1],"split_indices":[3,0,4,0,8,10,8,3,10,0,0,5,3,0,10,0,0,0,0,0,0],"split_type":[0,0,0,0,0,0,0,0,0,0,0,0,0,0,0,0,0,0,0,0,0],"sum_hessian":[7.683934E2,2.5814212E2,5.1025125E2,7.857497E1,4.316763E2,3.771757E2,5.4500603E1,2.795908E2,9.75849E1,1.8374318E0,5.266317E1,1.4889777E2,1.3069302E2,3.335929E1,6.422561E1,7.704796E0,1.4119298E2,1.0206171E1,1.20486855E2,4.696841E1,1.7257198E1],"tree_param":{"num_deleted":"0","num_feature":"16","num_nodes":"21","size_leaf_vector":"1"}},{"base_weights":[-3.880706E-2,-1.0840757E-1,4.662851E-1,-1.1754034E-1,7.5860035E-1,1.0658513E0,-7.336368E-2,-4.6022262E-2,1.0770448E0,-1.06982306E-1,4.7010097E-1,-5.16181E-2,3.833616E-2,5.654589E-1,1.0928631E0,1.0254213E0,-1.0446308E-1,9.1720685E-2,-7.091188E-2,1.1011288E-1,4.4548046E-2,3.279502E-2,1.06533825E-1],"categories":[],"categories_nodes":[],"categories_segments":[],"categories_sizes":[],"default_left":[0,0,0,0,0,0,0,0,0,0,0,0,0,0,0,0,0,0,0,0,0,0,0],"id":9,"left_children":[1,-1,3,-1,5,7,9,11,13,-1,15,-1,-1,17,19,21,-1,-1,-1,-1,-1,-1,-1],"loss_changes":[3.830189E2,0E0,2.3564224E2,0E0,1.06377625E2,3.8300476E0,6.1746338E1,1.0026796E0,1.8159485E0,0E0,6.321122E1,0E0,0E0,5.6237235E0,1.0649414E0,1.1696548E0,0E0,0E0,0E0,0E0,0E0,0E0,0E0],"parents":[2147483647,0,0,2,2,4,4,5,5,6,6,7,7,8,8,10,10,13,13,14,14,15,15],"right_children":[2,-1,4,-1,6,8,10,12,14,-1,16,-1,-1,18,20,22,-1,-1,-1,-1,-1,-1,-1],"split_conditions":[6.51E2,-1.0840757E-1,1.3E1,-1.1754034E-1,1E0,2.0572752E4,2E0,3.9E1,1.5E1,-1.06982306E-1,3E0,-5.16181E-2,3.833616E-2,1.0178687E1,2.137563E5,6.3451206E3,-1.0446308E-1,9.1720685E-2,-7.091188E-2,1.1011288E-1,4.4548046E-2,3.279502E-2,1.06533825E-1],"split_indices":[3,0,4,0,10,1,10,4,4,0,10,0,0,6,1,2,0,0,0,0,0,0,0],"split_type":[0,0,0,0,0,0,0,0,0,0,0,0,0,0,0,0,0,0,0,0,0,0,0],"sum_hessian":[7.2351624E2,2.3534096E2,4.8817526E2,7.3328705E1,4.1484656E2,3.0275543E2,1.1209112E2,2.9865334E0,2.997689E2,3.9217E1,7.2874115E1,1.329089E0,1.6574444E0,1.0092976E1,2.8967593E2,5.3560997E1,1.9313122E1,8.129769E0,1.9632063E0,2.853319E2,4.344005E0,3.398296E0,5.01627E1],"tree_param":{"num_deleted":"0","num_feature":"16","num_nodes":"23","size_leaf_vector":"1"}},{"base_weights":[-2.426711E-2,-1.1214452E-1,1.6784616E-1,4.3196502E-1,-4.6681157E-1,-5.6111913E-2,4.3851167E-1,-1.0640676E-1,-6.608947E-2,4.896933E-1,3.059718E-1,4.3902355E-1,-1.0492038E-1,6.2049085E-1,4.228743E-1,4.2250153E-1,1.8859611E-1,8.6004555E-1,3.6651787E-1,5.0205953E-2,8.245199E-2,-1.5639855E-3,4.4670567E-2,3.2434728E-2,7.6063365E-2,2.9474303E-2,-3.824129E-3,2.1292446E-2,9.4345555E-2,7.3976377E-3,4.477674E-2],"categories":[],"categories_nodes":[],"categories_segments":[],"categories_sizes":[],"default_left":[0,0,0,0,0,0,0,0,0,0,0,0,0,0,0,0,0,0,0,0,0,0,0,0,0,0,0,0,0,0,0],"id":10,"left_children":[1,-1,3,5,7,-1,9,-1,11,13,15,17,-1,19,21,23,25,27,29,-1,-1,-1,-1,-1,-1,-1,-1,-1,-1,-1,-1],"loss_changes":[1.4530278E2,0E0,9.855424E1,2.943077E0,4.131127E1,0E0,2.649643E0,0E0,5.237499E1,2.3250275E0,1.5292549E0,1.8144732E0,0E0,1.9531479E0,2.0875435E0,1.6856356E0,1.4658151E0,3.1225824E-1,1.422925E0,0E0,0E0,0E0,0E0,0E0,0E0,0E0,0E0,0E0,0E0,0E0,0E0],"parents":[2147483647,0,0,2,2,3,3,4,4,6,6,8,8,9,9,10,10,11,11,13,13,14,14,15,15,16,16,17,17,18,18],"right_children":[2,-1,4,6,8,-1,10,-1,12,14,16,18,-1,20,22,24,26,28,30,-1,-1,-1,-1,-1,-1,-1,-1,-1,-1,-1,-1],"split_conditions":[1.3E1,-1.1214452E-1,1E0,2.038102E4,2E0,-5.6111913E-2,9.67331E0,-1.0640676E-1,3E0,3.6E1,2.311193E4,2.4E1,-1.0492038E-1,5.3E1,2.6526234E0,1.8744129E4,5E0,3E0,3.3705016E4,5.0205953E-2,8.245199E-2,-1.5639855E-3,4.4670567E-2,3.2434728E-2,7.6063365E-2,2.9474303E-2,-3.824129E-3,2.1292446E-2,9.4345555E-2,7.3976377E-3,4.477674E-2],"split_indices":[4,0,10,1,10,0,6,0,10,7,2,0,0,0,6,2,5,5,1,0,0,0,0,0,0,0,0,0,0,0,0],"split_type":[0,0,0,0,0,0,0,0,0,0,0,0,0,0,0,0,0,0,0,0,0,0,0,0,0,0,0,0,0,0,0],"sum_hessian":[6.874564E2,1.0171492E2,5.8574146E2,4.1383817E2,1.7190332E2,2.1554708E0,4.1168268E2,6.836033E1,1.0354299E2,2.95051E2,1.166317E2,6.8765495E1,3.47775E1,9.6962265E1,1.9808871E2,5.722228E1,5.9409424E1,8.506816E0,6.025868E1,6.3540222E1,3.342204E1,1.0228103E1,1.8786061E2,4.5867054E1,1.1355226E1,4.0267284E1,1.914214E1,1.3769268E0,7.1298895E0,1.35134735E1,4.6745205E1],"tree_param":{"num_deleted":"0","num_feature":"16","num_nodes":"31","size_leaf_vector":"1"}},{"base_weights":[-4.1841123E-2,-1.0741869E-1,4.241547E-1,-1.13388255E-1,6.6114604E-1,9.2519003E-1,-1.0659961E-1,1.1766723E0,1.4257255E-1,1.1820725E0,8.752282E-3,-1.04323246E-1,6.8558604E-1,1.4064127E-1,1.13583975E-1,1.1403664E-1,-1.0025539E-1],"categories":[],"categories_nodes":[],"categories_segments":[],"categories_sizes":[],"default_left":[0,0,0,0,0,0,0,0,0,0,0,0,0,0,0,0,0],"id":11,"left_children":[1,-1,3,-1,5,7,-1,9,11,13,-1,-1,15,-1,-1,-1,-1],"loss_changes":[3.2341385E2,0E0,1.7180493E2,0E0,1.84648E2,6.868997E1,0E0,1.453064E0,5.6233273E1,1.1329651E0,0E0,0E0,4.7009544E1,0E0,0E0,0E0,0E0],"parents":[2147483647,0,0,2,2,4,4,5,5,7,7,8,8,9,9,12,12],"right_children":[2,-1,4,-1,6,8,-1,10,12,14,-1,-1,16,-1,-1,-1,-1],"split_conditions":[6.51E2,-1.0741869E-1,1.3E1,-1.13388255E-1,4.0125453E-1,1E0,-1.0659961E-1,3.9961457E-1,2E0,1.8045323E-1,8.752282E-3,-1.04323246E-1,3E0,1.4064127E-1,1.13583975E-1,1.1403664E-1,-1.0025539E-1],"split_indices":[3,0,4,0,8,10,0,8,10,8,0,0,10,0,0,0,0],"split_type":[0,0,0,0,0,0,0,0,0,0,0,0,0,0,0,0,0],"sum_hessian":[6.7033484E2,2.0807341E2,4.622614E2,6.05311E1,4.0173032E2,3.4886105E2,5.286925E1,2.636406E2,8.522045E1,2.6225497E2,1.3856161E0,2.6477987E1,5.8742466E1,3.9784466E1,2.2247052E2,4.653149E1,1.2210976E1],"tree_param":{"num_deleted":"0","num_feature":"16","num_nodes":"17","size_leaf_vector":"1"}},{"base_weights":[-4.187716E-2,-1.0659329E-1,3.9987627E-1,-1.1160361E-1,6.2178E-1,8.532864E-1,-1.0550275E-1,1.0764188E0,1.401777E-1,1.0836325E0,1.1230319E-1,-1.03151314E-1,6.344087E-1,9.950801E-2,1.2216326E-1,3.4137152E-2,-1.693404E-2,1.0801079E-1,-9.9503204E-2],"categories":[],"categories_nodes":[],"categories_segments":[],"categories_sizes":[],"default_left":[0,0,0,0,0,0,0,0,0,0,0,0,0,0,0,0,0,0,0],"id":12,"left_children":[1,-1,3,-1,5,7,-1,9,11,13,15,-1,17,-1,-1,-1,-1,-1,-1],"loss_changes":[2.8940128E2,0E0,1.5105963E2,0E0,1.525149E2,5.45439E1,0E0,1.6981506E0,4.8760284E1,1.9568176E0,2.5515503E-1,0E0,4.3956455E1,0E0,0E0,0E0,0E0,0E0,0E0],"parents":[2147483647,0,0,2,2,4,4,5,5,7,7,8,8,9,9,10,10,12,12],"right_children":[2,-1,4,-1,6,8,-1,10,12,14,16,-1,18,-1,-1,-1,-1,-1,-1],"split_conditions":[6.51E2,-1.0659329E-1,1.3E1,-1.1160361E-1,4.0125453E-1,1E0,-1.0550275E-1,3.9961457E-1,2E0,2.9874155E-1,1E0,-1.03151314E-1,3E0,9.950801E-2,1.2216326E-1,3.4137152E-2,-1.693404E-2,1.0801079E-1,-9.9503204E-2],"split_indices":[3,0,4,0,8,10,0,8,10,8,15,0,10,0,0,0,0,0,0],"split_type":[0,0,0,0,0,0,0,0,0,0,0,0,0,0,0,0,0,0,0],"sum_hessian":[6.377881E2,1.9178548E2,4.4600262E2,5.6436077E1,3.8956656E2,3.4273798E2,4.6828575E1,2.606659E2,8.207209E1,2.5860696E2,2.0589032E0,2.4025911E1,5.8046177E1,1.6252692E2,9.608007E1,1.0184783E0,1.0404251E0,4.5843723E1,1.2202455E1],"tree_param":{"num_deleted":"0","num_feature":"16","num_nodes":"19","size_leaf_vector":"1"}},{"base_weights":[-5.7069413E-2,-1.05824016E-1,3.6200184E-1,5.5266976E-1,-1.0456294E-1,7.39468E-1,-8.466828E-2,6.6027474E-1,8.7111914E-1,-1.02621056E-1,3.6864203E-1,6.9085765E-1,2.3237541E-1,1.0206155E0,6.786355E-1,7.685512E-1,-9.8880656E-2,-2.3407685E-2,7.024199E-2,6.666573E-2,-3.6006194E-2,3.5721648E-3,1.03936784E-1,7.211412E-2,-5.924355E-2,-6.459123E-3,8.3654515E-2],"categories":[],"categories_nodes":[],"categories_segments":[],"categories_sizes":[],"default_left":[0,0,0,0,0,0,0,0,0,0,0,0,0,0,0,0,0,0,0,0,0,0,0,0,0,0,0],"id":13,"left_children":[1,-1,3,5,-1,7,9,11,13,-1,15,17,19,21,23,25,-1,-1,-1,-1,-1,-1,-1,-1,-1,-1,-1],"loss_changes":[2.5118639E2,0E0,1.13874466E2,4.440175E1,0E0,2.4286957E0,3.6790398E1,2.2477798E0,2.3312683E0,0E0,3.242059E1,1.9958191E0,3.7861E0,1.0186234E0,3.0704021E0,2.637951E0,0E0,0E0,0E0,0E0,0E0,0E0,0E0,0E0,0E0,0E0,0E0],"parents":[2147483647,0,0,2,2,3,3,5,5,6,6,7,7,8,8,10,10,11,11,12,12,13,13,14,14,15,15],"right_children":[2,-1,4,6,-1,8,10,12,14,-1,16,18,20,22,24,26,-1,-1,-1,-1,-1,-1,-1,-1,-1,-1,-1],"split_conditions":[6.51E2,-1.05824016E-1,4.0125453E-1,1E0,-1.0456294E-1,2.9874155E-1,2E0,2.8815144E-1,7.29E2,-1.02621056E-1,3E0,2.0572752E4,7.21E2,5.6458984E3,2.137563E5,7.8492065E3,-9.8880656E-2,-2.3407685E-2,7.024199E-2,6.666573E-2,-3.6006194E-2,3.5721648E-3,1.03936784E-1,7.211412E-2,-5.924355E-2,-6.459123E-3,8.3654515E-2],"split_indices":[3,0,8,10,0,8,10,8,3,0,10,1,3,2,1,2,0,0,0,0,0,0,0,0,0,0,0],"split_type":[0,0,0,0,0,0,0,0,0,0,0,0,0,0,0,0,0,0,0,0,0,0,0,0,0,0,0],"sum_hessian":[5.9677423E2,1.756403E2,4.211339E2,3.7142996E2,4.9703945E1,2.8711795E2,8.431201E1,1.8303233E2,1.04085625E2,2.6989664E1,5.7322346E1,1.702497E2,1.2782633E1,5.616308E1,4.792255E1,4.461302E1,1.2709326E1,1.8643452E0,1.6838536E2,7.303544E0,5.479089E0,1.1036377E0,5.505944E1,4.679049E1,1.1320612E0,3.3699896E0,4.124303E1],"tree_param":{"num_deleted":"0","num_feature":"16","num_nodes":"27","size_leaf_vector":"1"}},{"base_weights":[-2.7348848E-2,-1.0904447E-1,1.4647521E-1,3.5436165E-1,-4.0958607E-1,4.9793145E-1,3.1225976E-1,-1.0306885E-1,-5.42343E-2,1.8418363E-1,5.473489E-1,-1.03677705E-1,3.2972693E-1,3.2127494E-1,-1.0104115E-1,-9.255376E-2,4.1165957E-1,2.010044E-1,5.8867234E-1,3.403353E-1,-3.755498E-1,5.399237E-1,1.439663E-1,4.264092E-3,7.192036E-2,5.6957033E-2,-2.0323543E-2,4.1913457E-2,6.609707E-2,3.9188612E-2,2.5982244E-2,-1.1524301E-1,4.3263637E-2,7.375009E-2,1.7457101E-2,-5.094216E-3,5.320697E-2],"categories":[],"categories_nodes":[],"categories_segments":[],"categories_sizes":[],"default_left":[0,0,0,0,0,0,0,0,0,0,0,0,0,0,0,0,0,0,0,0,0,0,0,0,0,0,0,0,0,0,0,0,0,0,0,0,0],"id":14,"left_children":[1,-1,3,5,7,9,11,-1,13,15,17,-1,19,21,-1,-1,23,25,27,29,31,33,35,-1,-1,-1,-1,-1,-1,-1,-1,-1,-1,-1,-1,-1,-1],"loss_changes":[1.0637909E2,0E0,5.735559E1,2.0252228E0,2.9770718E1,1.141489E0,6.9785194E0,0E0,3.1567654E1,3.5137413E0,8.6512756E-1,0E0,2.213789E0,2.37387E0,0E0,0E0,1.2167052E0,1.433284E0,4.690838E-1,1.0403843E0,3.391084E0,1.8891153E0,2.7717466E0,0E0,0E0,0E0,0E0,0E0,0E0,0E0,0E0,0E0,0E0,0E0,0E0,0E0,0E0],"parents":[2147483647,0,0,2,2,3,3,4,4,5,5,6,6,8,8,9,9,10,10,12,12,13,13,16,16,17,17,18,18,19,19,20,20,21,21,22,22],"right_children":[2,-1,4,6,8,10,12,-1,14,16,18,-1,20,22,-1,-1,24,26,28,30,32,34,36,-1,-1,-1,-1,-1,-1,-1,-1,-1,-1,-1,-1,-1,-1],"split_conditions":[1.3E1,-1.0904447E-1,1E0,5.638373E0,2E0,1E0,5.711497E0,-1.0306885E-1,3E0,1.5062852E4,2.2241604E0,-1.03677705E-1,2.72E2,1E0,-1.0104115E-1,-9.255376E-2,3.975813E4,2.1058547E4,3.9E1,6.4E1,1.041076E1,6.6E1,9.312834E0,4.264092E-3,7.192036E-2,5.6957033E-2,-2.0323543E-2,4.1913457E-2,6.609707E-2,3.9188612E-2,2.5982244E-2,-1.1524301E-1,4.3263637E-2,7.375009E-2,1.7457101E-2,-5.094216E-3,5.320697E-2],"split_indices":[4,0,10,6,10,14,6,0,10,2,6,0,4,9,0,0,2,2,4,4,6,4,6,0,0,0,0,0,0,0,0,0,0,0,0,0,0],"split_type":[0,0,0,0,0,0,0,0,0,0,0,0,0,0,0,0,0,0,0,0,0,0,0,0,0,0,0,0,0,0,0,0,0,0,0,0,0],"sum_hessian":[5.7380615E2,7.989578E1,4.9391034E2,3.5977084E2,1.3413951E2,7.912463E1,2.806462E2,4.8124504E1,8.601501E1,1.1410071E1,6.771456E1,2.841398E0,2.778048E2,6.223724E1,2.3777763E1,1.4189794E0,9.991092E0,7.843116E0,5.9871445E1,2.741979E2,3.606892E0,2.6953875E1,3.5283367E1,5.0592284E0,4.931864E0,3.8886478E0,3.954468E0,1.9931023E1,3.9940426E1,1.6480754E2,1.0939037E2,1.6218857E0,1.9850066E0,1.6832508E1,1.01213665E1,2.4065987E1,1.1217381E1],"tree_param":{"num_deleted":"0","num_feature":"16","num_nodes":"37","size_leaf_vector":"1"}},{"base_weights":[-4.535262E-2,-1.05147794E-1,3.4622464E-1,-1.0956245E-1,5.4086894E-1,7.476495E-1,-1.0026324E0,6.796028E-1,8.3967966E-1,-1.4492266E-2,-1.0377922E-1,7.1503097E-1,-6.359518E-1,9.0712565E-1,5.6624734E-1,9.2509694E-2,6.481004E-2,-1.0864971E-1,3.6267903E-2,1.1558912E-2,9.218845E-2,8.081674E-2,-3.2921773E-3],"categories":[],"categories_nodes":[],"categories_segments":[],"categories_sizes":[],"default_left":[0,0,0,0,0,0,0,0,0,0,0,0,0,0,0,0,0,0,0,0,0,0,0],"id":15,"left_children":[1,-1,3,-1,5,7,9,11,13,-1,-1,15,17,19,21,-1,-1,-1,-1,-1,-1,-1,-1],"loss_changes":[2.1968861E2,0E0,1.1326854E2,0E0,1.1386274E2,1.3901215E0,1.1251411E0,9.088974E0,1.8626175E0,0E0,0E0,1.9433975E0,2.8179777E0,1.0814667E0,4.1078024E0,0E0,0E0,0E0,0E0,0E0,0E0,0E0,0E0],"parents":[2147483647,0,0,2,2,4,4,5,5,6,6,7,7,8,8,11,11,12,12,13,13,14,14],"right_children":[2,-1,4,-1,6,8,10,12,14,-1,-1,16,18,20,22,-1,-1,-1,-1,-1,-1,-1,-1],"split_conditions":[6.51E2,-1.05147794E-1,1.3E1,-1.0956245E-1,3.9961457E-1,2.9064023E-1,4.0125453E-1,2.8815144E-1,7.72E2,-1.4492266E-2,-1.0377922E-1,1.7450543E-1,1E0,5.767368E3,8.997254E0,9.2509694E-2,6.481004E-2,-1.0864971E-1,3.6267903E-2,1.1558912E-2,9.218845E-2,8.081674E-2,-3.2921773E-3],"split_indices":[3,0,4,0,8,8,8,8,3,0,0,8,15,2,6,0,0,0,0,0,0,0,0],"split_type":[0,0,0,0,0,0,0,0,0,0,0,0,0,0,0,0,0,0,0,0,0,0,0],"sum_hessian":[5.5569556E2,1.5521031E2,4.004853E2,4.708311E1,3.5340216E2,3.1210547E2,4.1296684E1,1.842537E2,1.2785178E2,1.827889E0,3.9468796E1,1.7986633E2,4.3873634E0,1.006961E2,2.7155684E1,4.0362923E1,1.3950342E2,2.9627113E0,1.4246522E0,2.0048547E0,9.8691246E1,1.9096487E1,8.059196E0],"tree_param":{"num_deleted":"0","num_feature":"16","num_nodes":"23","size_leaf_vector":"1"}},{"base_weights":[-2.9572079E-2,-1.0451736E-1,3.4374642E-1,5.068995E-1,-1.0295283E-1,6.712172E-1,-3.9224625E-2,7.665137E-1,5.7597303E-1,-1.0111505E-1,3.5582107E-1,5.689343E-1,8.8975877E-1,5.1545465E-1,8.205049E-1,6.892557E-1,-9.7102344E-2,6.347672E-2,-5.2999645E-2,5.2522164E-2,9.762877E-2,2.9343361E-2,5.8182657E-2,1.0525765E-1,6.259014E-2,-3.6608916E-2,7.285795E-2],"categories":[],"categories_nodes":[],"categories_segments":[],"categories_sizes":[],"default_left":[0,0,0,0,0,0,0,0,0,0,0,0,0,0,0,0,0,0,0,0,0,0,0,0,0,0,0],"id":16,"left_children":[1,-1,3,5,-1,7,9,11,13,-1,15,17,19,21,23,25,-1,-1,-1,-1,-1,-1,-1,-1,-1,-1,-1],"loss_changes":[2.0163522E2,0E0,8.766414E1,3.1282333E1,0E0,1.9891739E0,3.1653555E1,2.6798325E0,1.6186867E0,0E0,2.6634398E1,4.17334E0,1.9729652E0,1.498558E0,5.009403E-1,2.2374687E0,0E0,0E0,0E0,0E0,0E0,0E0,0E0,0E0,0E0,0E0,0E0],"parents":[2147483647,0,0,2,2,3,3,5,5,6,6,7,7,8,8,10,10,11,11,12,12,13,13,14,14,15,15],"right_children":[2,-1,4,6,-1,8,10,12,14,-1,16,18,20,22,24,26,-1,-1,-1,-1,-1,-1,-1,-1,-1,-1,-1],"split_conditions":[6.51E2,-1.0451736E-1,4.0125453E-1,1E0,-1.0295283E-1,7.18E2,2E0,2.4617428E-1,6.1E1,-1.0111505E-1,3E0,2.404659E-1,2.7E1,1.3712448E4,2.172084E4,1.2772705E-1,-9.7102344E-2,6.347672E-2,-5.2999645E-2,5.2522164E-2,9.762877E-2,2.9343361E-2,5.8182657E-2,1.0525765E-1,6.259014E-2,-3.6608916E-2,7.285795E-2],"split_indices":[3,0,8,10,0,3,10,8,0,0,10,8,0,2,2,8,0,0,0,0,0,0,0,0,0,0,0],"split_type":[0,0,0,0,0,0,0,0,0,0,0,0,0,0,0,0,0,0,0,0,0,0,0,0,0,0,0],"sum_hessian":[5.2987103E2,1.4193675E2,3.8793427E2,3.4730347E2,4.0630802E1,2.6679974E2,8.05037E1,1.2984029E2,1.3695947E2,2.2814325E1,5.7689373E1,5.20358E1,7.780449E1,1.1227968E2,2.4679789E1,4.6487614E1,1.1201759E1,4.949322E1,2.5425775E0,1.628163E1,6.1522858E1,2.708812E1,8.519156E1,9.245441E0,1.5434347E1,1.3714691E0,4.5116146E1],"tree_param":{"num_deleted":"0","num_feature":"16","num_nodes":"27","size_leaf_vector":"1"}},{"base_weights":[-3.5795502E-2,-1.0394269E-1,3.1443593E-1,-1.0927043E-1,5.143017E-1,6.863104E-1,-1.02027096E-1,7.3966753E-1,-9.4716735E-2,8.4308875E-1,3.0162036E-1,3.0583838E-2,8.600891E-2,-9.94227E-2,8.8471346E-2],"categories":[],"categories_nodes":[],"categories_segments":[],"categories_sizes":[],"default_left":[0,0,0,0,0,0,0,0,0,0,0,0,0,0,0],"id":17,"left_children":[1,-1,3,-1,5,7,-1,9,-1,11,13,-1,-1,-1,-1],"loss_changes":[1.7648843E2,0E0,1.05263695E2,0E0,8.69267E1,2.63544E1,0E0,1.2683868E1,0E0,1.842041E0,4.327248E1,0E0,0E0,0E0,0E0],"parents":[2147483647,0,0,2,2,4,4,5,5,7,7,9,9,10,10],"right_children":[2,-1,4,-1,6,8,-1,10,-1,12,14,-1,-1,-1,-1],"split_conditions":[6.51E2,-1.0394269E-1,1.3E1,-1.0927043E-1,4.0125453E-1,3E0,-1.02027096E-1,1E0,-9.4716735E-2,1.5E1,2E0,3.0583838E-2,8.600891E-2,-9.94227E-2,8.8471346E-2],"split_indices":[3,0,4,0,8,10,0,10,0,4,10,0,0,0,0],"split_type":[0,0,0,0,0,0,0,0,0,0,0,0,0,0,0],"sum_hessian":[5.001663E2,1.288792E2,3.7128708E2,4.5621944E1,3.2566513E2,2.9333795E2,3.2327187E1,2.845891E2,8.748844E0,2.2948415E2,5.5104942E1,7.621359E0,2.218628E2,1.6881948E1,3.8222996E1],"tree_param":{"num_deleted":"0","num_feature":"16","num_nodes":"15","size_leaf_vector":"1"}},{"base_weights":[-3.1162025E-2,-1.0641658E-1,1.17262624E-1,2.8685752E-1,-1.0237616E-1,4.651817E-1,-3.033159E-1,6.730546E-1,4.3563372E-1,-1.00251675E-1,2.3442378E-2,3.9833808E-1,7.825282E-1,3.4073138E-1,5.614084E-1,3.574384E-1,-9.73706E-2,4.720226E-3,7.095957E-2,9.173666E-2,3.695954E-2,3.6754653E-2,-2.715983E-2,5.801784E-2,-1.3853741E-2,6.0795095E-2,2.052555E-2],"categories":[],"categories_nodes":[],"categories_segments":[],"categories_sizes":[],"default_left":[0,0,0,0,0,0,0,0,0,0,0,0,0,0,0,0,0,0,0,0,0,0,0,0,0,0,0],"id":18,"left_children":[1,-1,3,5,-1,7,9,11,13,-1,15,17,19,21,23,25,-1,-1,-1,-1,-1,-1,-1,-1,-1,-1,-1],"loss_changes":[7.371634E1,0E0,8.168033E1,3.875817E1,0E0,1.4400368E0,1.961476E1,6.8928623E-1,2.7916107E0,0E0,2.0136337E1,1.2256843E0,9.283829E-1,2.4802704E0,1.4720268E0,1.5999274E0,0E0,0E0,0E0,0E0,0E0,0E0,0E0,0E0,0E0,0E0,0E0],"parents":[2147483647,0,0,2,2,3,3,5,5,6,6,7,7,8,8,10,10,11,11,12,12,13,13,14,14,15,15],"right_children":[2,-1,4,6,-1,8,10,12,14,-1,16,18,20,22,24,26,-1,-1,-1,-1,-1,-1,-1,-1,-1,-1,-1],"split_conditions":[1.3E1,-1.0641658E-1,4.0125453E-1,1E0,-1.0237616E-1,1.7171346E-1,2E0,2E0,2.9874155E-1,-1.00251675E-1,3E0,1E0,1E0,1.93E2,3.9961457E-1,2E0,-9.73706E-2,4.720226E-3,7.095957E-2,9.173666E-2,3.695954E-2,3.6754653E-2,-2.715983E-2,5.801784E-2,-1.3853741E-2,6.0795095E-2,2.052555E-2],"split_indices":[4,0,8,10,0,8,10,14,8,0,10,12,15,4,8,14,0,0,0,0,0,0,0,0,0,0,0],"split_type":[0,0,0,0,0,0,0,0,0,0,0,0,0,0,0,0,0,0,0,0,0,0,0,0,0,0,0],"sum_hessian":[4.789765E2,5.9399433E1,4.1957706E2,3.6593527E2,5.3641792E1,2.8118533E2,8.474993E1,3.228425E1,2.489011E2,2.6333393E1,5.8416542E1,1.0521057E1,2.1763191E1,1.4397495E2,1.0492615E2,4.4239883E1,1.417666E1,5.484986E0,5.036071E0,1.5485122E1,6.2780704E0,1.383175E2,5.657442E0,1.0235254E2,2.5736127E0,1.5586928E1,2.8652954E1],"tree_param":{"num_deleted":"0","num_feature":"16","num_nodes":"27","size_leaf_vector":"1"}},{"base_weights":[-3.814669E-2,-1.0547023E-1,1.041959E-1,2.66652E-1,-9.934157E-1,4.1135773E-1,-2.1602352E-1,-3.6853752E-1,-1.0175953E-1,5.771587E-1,3.6419618E-1,-9.9490516E-2,1.2498802E-1,1.8373197E-2,-7.356047E-2,2.6191363E-1,7.100523E-1,-1.0271109E0,3.8588384E-1,4.5196447E-1,-9.621255E-2,6.1752316E-2,-1.3083327E-2,1.5926706E-2,7.625336E-2,-1.25289E-1,-3.0692304E-2,-3.1319637E-2,3.940904E-2,5.0750833E-2,-3.231893E-2],"categories":[],"categories_nodes":[],"categories_segments":[],"categories_sizes":[],"default_left":[0,0,0,0,0,0,0,0,0,0,0,0,0,0,0,0,0,0,0,0,0,0,0,0,0,0,0,0,0,0,0],"id":19,"left_children":[1,-1,3,5,7,9,11,13,-1,15,17,-1,19,-1,-1,21,23,25,27,29,-1,-1,-1,-1,-1,-1,-1,-1,-1,-1,-1],"loss_changes":[6.579887E1,0E0,7.1433495E1,2.4426767E1,4.056549E-1,1.8887329E0,2.1645508E1,8.431821E-1,0E0,2.2327366E0,6.783964E0,0E0,2.0782036E1,0E0,0E0,2.693244E0,1.0356178E0,1.8819523E-1,1.3234406E0,2.0879898E0,0E0,0E0,0E0,0E0,0E0,0E0,0E0,0E0,0E0,0E0,0E0],"parents":[2147483647,0,0,2,2,3,3,4,4,5,5,6,6,7,7,9,9,10,10,12,12,15,15,16,16,17,17,18,18,19,19],"right_children":[2,-1,4,6,8,10,12,14,-1,16,18,-1,20,-1,-1,22,24,26,28,30,-1,-1,-1,-1,-1,-1,-1,-1,-1,-1,-1],"split_conditions":[1.3E1,-1.0547023E-1,3.9961457E-1,1E0,4.0125453E-1,5.638373E0,2E0,4.8E1,-1.0175953E-1,3.9E1,5.711497E0,-9.9490516E-2,3E0,1.8373197E-2,-7.356047E-2,5.8439844E4,2.2241604E0,1E0,2.0572752E4,9.114164E4,-9.621255E-2,6.1752316E-2,-1.3083327E-2,1.5926706E-2,7.625336E-2,-1.25289E-1,-3.0692304E-2,-3.1319637E-2,3.940904E-2,5.0750833E-2,-3.231893E-2],"split_indices":[4,0,8,10,8,6,10,7,0,4,6,0,10,0,0,1,6,15,1,2,0,0,0,0,0,0,0,0,0,0,0],"split_type":[0,0,0,0,0,0,0,0,0,0,0,0,0,0,0,0,0,0,0,0,0,0,0,0,0,0,0,0,0,0,0],"sum_hessian":[4.529692E2,5.484904E1,3.9812018E2,3.474514E2,5.0668777E1,2.6742526E2,8.002612E1,2.49264E0,4.817614E1,5.6733902E1,2.1069138E2,2.3784355E1,5.6241764E1,1.1946673E0,1.2979726E0,1.7705193E1,3.902871E1,2.522288E0,2.0816908E2,4.368628E1,1.2555484E1,8.991549E0,8.713644E0,3.7463121E0,3.52824E1,1.3571507E0,1.1651374E0,1.9841572E0,2.0618494E2,4.108743E1,2.598851E0],"tree_param":{"num_deleted":"0","num_feature":"16","num_nodes":"31","size_leaf_vector":"1"}},{"base_weights":[-1.0465607E-2,-1.0345905E-1,3.4759736E-1,-1.0527579E-1,5.127169E-1,6.6775936E-1,-8.9230436E-1,8.017748E-1,5.940286E-1,-1.4816792E-1,-9.9776365E-2,-2.488041E-2,8.1778514E-1,5.3556573E-1,8.4216213E-1,2.926179E-1,-7.005688E-2,6.0614616E-2,8.981015E-2,5.670923E-2,-2.168444E-2,8.9487E-2,-8.569333E-3,-4.0232148E-2,8.5388534E-2],"categories":[],"categories_nodes":[],"categories_segments":[],"categories_sizes":[],"default_left":[0,0,0,0,0,0,0,0,0,0,0,0,0,0,0,0,0,0,0,0,0,0,0,0,0],"id":20,"left_children":[1,-1,3,-1,5,7,9,11,13,15,-1,-1,17,19,21,23,-1,-1,-1,-1,-1,-1,-1,-1,-1],"loss_changes":[1.6067368E2,0E0,7.561283E1,0E0,6.400873E1,2.1199036E0,2.156086E0,1.7238426E0,2.0637283E0,1.3782836E0,0E0,0E0,9.729767E-1,3.5161057E0,1.6078453E0,1.6640152E0,0E0,0E0,0E0,0E0,0E0,0E0,0E0,0E0,0E0],"parents":[2147483647,0,0,2,2,4,4,5,5,6,6,7,7,8,8,9,9,12,12,13,13,14,14,15,15],"right_children":[2,-1,4,-1,6,8,10,12,14,16,-1,-1,18,20,22,24,-1,-1,-1,-1,-1,-1,-1,-1,-1],"split_conditions":[6.51E2,-1.0345905E-1,1.3E1,-1.0527579E-1,3.9825067E-1,3.6E1,4.0125453E-1,2.0961354E4,1.05756414E5,6E1,-9.9776365E-2,-2.488041E-2,3.2E1,9.817357E4,1.61E2,3E0,-7.005688E-2,6.0614616E-2,8.981015E-2,5.670923E-2,-2.168444E-2,8.9487E-2,-8.569333E-3,-4.0232148E-2,8.5388534E-2],"split_indices":[3,0,4,0,8,7,8,1,1,7,0,0,4,1,4,5,0,0,0,0,0,0,0,0,0],"split_type":[0,0,0,0,0,0,0,0,0,0,0,0,0,0,0,0,0,0,0,0,0,0,0,0,0],"sum_hessian":[4.3617896E2,1.1250497E2,3.2367398E2,3.3572727E1,2.9010126E2,2.6174298E2,2.8358292E1,8.939011E1,1.7235286E2,3.8186057E0,2.4539686E1,1.1235561E0,8.826655E1,1.4204416E2,3.0308704E1,2.3854368E0,1.4331688E0,2.6633198E1,6.163335E1,1.3656815E2,5.476007E0,2.8713171E1,1.5955325E0,1.1923307E0,1.1931062E0],"tree_param":{"num_deleted":"0","num_feature":"16","num_nodes":"25","size_leaf_vector":"1"}},{"base_weights":[-4.118713E-2,-1.02968335E-1,2.8338188E-1,-1.0438996E-1,4.339459E-1,4.4780236E-1,-3.3447493E-2,-4.0917717E-2,4.5901343E-1,7.07016E-2,-4.2035827E-1,4.2361268E-1,-9.127453E-2,4.2087853E-1,6.270867E-1,4.971188E-1,-1.0298346E0,6.608836E-2,-2.9816708E-4,4.5088448E-2,-1.2700346E-3,2.1763874E-2,7.148465E-2,1.0845541E-2,6.2546104E-2,-1.4387733E-1,7.1729E-3],"categories":[],"categories_nodes":[],"categories_segments":[],"categories_sizes":[],"default_left":[0,0,0,0,0,0,0,0,0,0,0,0,0,0,0,0,0,0,0,0,0,0,0,0,0,0,0],"id":21,"left_children":[1,-1,3,-1,5,7,9,11,13,-1,15,17,-1,19,21,23,25,-1,-1,-1,-1,-1,-1,-1,-1,-1,-1],"loss_changes":[1.3501936E2,0E0,6.3785E1,0E0,1.8628998E0,1.5375023E0,2.9174533E0,3.2758896E0,1.4733658E0,0E0,4.2216816E0,5.421961E-1,0E0,2.919506E0,1.5722828E0,9.789604E-2,2.0455327E0,0E0,0E0,0E0,0E0,0E0,0E0,0E0,0E0,0E0,0E0],"parents":[2147483647,0,0,2,2,4,4,5,5,6,6,7,7,8,8,10,10,11,11,13,13,14,14,15,15,16,16],"right_children":[2,-1,4,-1,6,8,10,12,14,-1,16,18,-1,20,22,24,26,-1,-1,-1,-1,-1,-1,-1,-1,-1,-1],"split_conditions":[6.51E2,-1.02968335E-1,1.3E1,-1.0438996E-1,8E0,5.767368E3,6.1910906E0,8.1E1,6.1E1,7.07016E-2,3.6E1,7.16E2,-9.127453E-2,5.8E1,6.75E2,7.25E2,6.4E1,6.608836E-2,-2.9816708E-4,4.5088448E-2,-1.2700346E-3,2.1763874E-2,7.148465E-2,1.0845541E-2,6.2546104E-2,-1.4387733E-1,7.1729E-3],"split_indices":[3,0,4,0,5,2,6,4,0,0,0,3,0,0,3,3,0,0,0,0,0,0,0,0,0,0,0],"split_type":[0,0,0,0,0,0,0,0,0,0,0,0,0,0,0,0,0,0,0,0,0,0,0,0,0,0,0],"sum_hessian":[4.1892755E2,1.03015274E2,3.1591226E2,3.1580894E1,2.8433136E2,2.7618542E2,8.145949E0,6.134092E0,2.7005133E2,2.5117216E0,5.634228E0,4.337225E0,1.7968668E0,2.2296577E2,4.708555E1,2.3224587E0,3.3117695E0,2.4341483E0,1.9030769E0,2.084968E2,1.4468976E1,8.925076E0,3.8160473E1,1.0345483E0,1.2879105E0,2.1919298E0,1.1198395E0],"tree_param":{"num_deleted":"0","num_feature":"16","num_nodes":"27","size_leaf_vector":"1"}},{"base_weights":[-5.561714E-2,7.438474E-2,-9.9932365E-2,-1.0315627E-1,1.966595E-1,3.4007794E-1,-2.7953193E-1,5.712234E-1,2.9343447E-1,-9.8966114E-2,2.6339062E-2,2.0944427E-1,6.7399275E-1,5.049464E-1,2.47913E-1,3.0894068E-1,-9.5195636E-2,-9.309561E-2,4.354941E-2,7.794449E-2,1.061044E-2,5.6011993E-2,-5.2328642E-2,3.1552017E-2,8.589021E-3,5.5581916E-2,1.1859613E-2],"categories":[],"categories_nodes":[],"categories_segments":[],"categories_sizes":[],"default_left":[0,0,0,0,0,0,0,0,0,0,0,0,0,0,0,0,0,0,0,0,0,0,0,0,0,0,0],"id":22,"left_children":[1,3,-1,-1,5,7,9,11,13,-1,15,17,19,21,23,25,-1,-1,-1,-1,-1,-1,-1,-1,-1,-1,-1],"loss_changes":[4.9359604E1,4.8076435E1,0E0,0E0,2.1922928E1,2.485529E0,1.621422E1,1.355835E0,1.8661594E0,0E0,1.4964968E1,3.0756295E0,1.7680769E0,2.3163767E0,1.8586912E0,1.9043121E0,0E0,0E0,0E0,0E0,0E0,0E0,0E0,0E0,0E0,0E0,0E0],"parents":[2147483647,0,0,1,1,4,4,5,5,6,6,7,7,8,8,10,10,11,11,12,12,13,13,14,14,15,15],"right_children":[2,4,-1,-1,6,8,10,12,14,-1,16,18,20,22,24,26,-1,-1,-1,-1,-1,-1,-1,-1,-1,-1,-1],"split_conditions":[3.9961457E-1,1.3E1,-9.9932365E-2,-1.0315627E-1,1E0,4.927141E0,2E0,2.1111633E-1,2.4E1,-9.8966114E-2,3E0,3.2E1,7.2E1,1.84E2,9.768497E0,1E0,-9.5195636E-2,-9.309561E-2,4.354941E-2,7.794449E-2,1.061044E-2,5.6011993E-2,-5.2328642E-2,3.1552017E-2,8.589021E-3,5.5581916E-2,1.1859613E-2],"split_indices":[8,4,0,0,10,6,10,8,7,0,10,0,7,4,6,9,0,0,0,0,0,0,0,0,0,0,0],"split_type":[0,0,0,0,0,0,0,0,0,0,0,0,0,0,0,0,0,0,0,0,0,0,0,0,0,0,0],"sum_hessian":[4.0072662E2,3.530173E2,4.7709316E1,3.4404053E1,3.1861325E2,2.4508488E2,7.3528366E1,3.926373E1,2.0582117E2,2.146299E1,5.2065376E1,9.358168E0,2.9905561E1,3.4664192E1,1.7115697E2,4.0926952E1,1.1138424E1,1.032241E0,8.325927E0,2.4907852E1,4.9977098E0,3.333096E1,1.3332331E0,1.2009684E2,5.1060127E1,1.6981604E1,2.3945349E1],"tree_param":{"num_deleted":"0","num_feature":"16","num_nodes":"27","size_leaf_vector":"1"}},{"base_weights":[-3.710665E-2,-1.0252775E-1,2.7020538E-1,3.8949582E-1,-9.6885175E-2,5.171204E-1,-5.222274E-2,6.090829E-1,3.9429268E-1,-9.7337335E-2,2.677856E-1,4.6850875E-1,7.488041E-1,-4.3543437E-1,4.5171484E-1,5.186635E-1,-9.181238E-2,-3.1983282E-2,5.149745E-2,1.1819439E-2,7.846758E-2,5.4656506E-2,-1.2961142E-1,3.8210925E-2,7.928795E-2,7.3659725E-2,3.204881E-2],"categories":[],"categories_nodes":[],"categories_segments":[],"categories_sizes":[],"default_left":[0,0,0,0,0,0,0,0,0,0,0,0,0,0,0,0,0,0,0,0,0,0,0,0,0,0,0],"id":23,"left_children":[1,-1,3,5,-1,7,9,11,13,-1,15,17,19,21,23,25,-1,-1,-1,-1,-1,-1,-1,-1,-1,-1,-1],"loss_changes":[1.1884602E2,0E0,4.451503E1,1.5423027E1,0E0,2.1542358E0,1.8574385E1,1.9940071E0,4.6559286E0,0E0,1.4427881E1,2.4424639E0,1.223835E0,6.258898E0,1.7873955E0,1.4631805E0,0E0,0E0,0E0,0E0,0E0,0E0,0E0,0E0,0E0,0E0,0E0],"parents":[2147483647,0,0,2,2,3,3,5,5,6,6,7,7,8,8,10,10,11,11,12,12,13,13,14,14,15,15],"right_children":[2,-1,4,6,-1,8,10,12,14,-1,16,18,20,22,24,26,-1,-1,-1,-1,-1,-1,-1,-1,-1,-1,-1],"split_conditions":[6.51E2,-1.0252775E-1,3.9961457E-1,1E0,-9.6885175E-2,7.29E2,2E0,2.7351254E-1,7.33E2,-9.7337335E-2,3E0,2.2552414E4,2E0,4.4E1,1.1809985E5,1E0,-9.181238E-2,-3.1983282E-2,5.149745E-2,1.1819439E-2,7.846758E-2,5.4656506E-2,-1.2961142E-1,3.8210925E-2,7.928795E-2,7.3659725E-2,3.204881E-2],"split_indices":[3,0,8,10,0,3,10,8,3,0,10,1,5,0,1,9,0,0,0,0,0,0,0,0,0,0,0],"split_type":[0,0,0,0,0,0,0,0,0,0,0,0,0,0,0,0,0,0,0,0,0,0,0,0,0,0,0],"sum_hessian":[3.8944467E2,9.182914E1,2.9761554E2,2.721043E2,2.5511238E1,2.1097667E2,6.112764E1,1.1838311E2,9.259357E1,1.523414E1,4.5893497E1,6.118141E1,5.72017E1,5.5671687E0,8.70264E1,3.834442E1,7.5490785E0,3.0779212E0,5.810349E1,3.3098974E0,5.38918E1,2.7707832E0,2.7963855E0,7.404042E1,1.2985973E1,1.6967907E1,2.1376514E1],"tree_param":{"num_deleted":"0","num_feature":"16","num_nodes":"27","size_leaf_vector":"1"}},{"base_weights":[-1.5839104E-2,9.7872116E-2,-9.9860035E-2,-1.025579E-1,2.1235608E-1,1.8897843E-1,4.5938608E-1,2.0428614E-1,-5.1010084E-1,1.9509712E-1,7.806183E-1,4.315121E-1,1.731957E-1,-9.5269525E-1,5.5215575E-2,4.7756788E-1,-2.7533704E-1,1.1169419E-2,8.447258E-1,5.066208E-3,5.155746E-2,-7.238543E-2,1.8119318E-2,-1.5825376E-1,-3.174222E-2,7.803496E-3,7.415617E-2,-9.62476E-2,2.2967367E-2,2.6526166E-2,8.9466356E-2],"categories":[],"categories_nodes":[],"categories_segments":[],"categories_sizes":[],"default_left":[0,0,0,0,0,0,0,0,0,0,0,0,0,0,0,0,0,0,0,0,0,0,0,0,0,0,0,0,0,0,0],"id":24,"left_children":[1,3,-1,-1,5,7,9,11,13,15,17,19,21,23,-1,25,27,-1,29,-1,-1,-1,-1,-1,-1,-1,-1,-1,-1,-1,-1],"loss_changes":[4.229808E1,4.3867435E1,0E0,0E0,1.6966124E0,3.141449E0,2.0550222E0,1.8924065E0,3.519747E0,2.2041185E0,3.9461708E-1,1.0253711E0,1.9003654E0,1.4429474E0,0E0,1.0086107E0,2.4717786E0,0E0,5.9365273E-2,0E0,0E0,0E0,0E0,0E0,0E0,0E0,0E0,0E0,0E0,0E0,0E0],"parents":[2147483647,0,0,1,1,4,4,5,5,6,6,7,7,8,8,9,9,10,10,11,11,12,12,13,13,15,15,16,16,18,18],"right_children":[2,4,-1,-1,6,8,10,12,14,16,18,20,22,24,-1,26,28,-1,30,-1,-1,-1,-1,-1,-1,-1,-1,-1,-1,-1,-1],"split_conditions":[4.0125453E-1,1.3E1,-9.9860035E-2,-1.025579E-1,6.6E1,6.5E1,2E0,4.370734E0,1E0,6.6E1,2.2E1,2.2241604E0,4.4422274E0,3.4661355E4,5.5215575E-2,2.8023678E-1,1.09E2,1.1169419E-2,3.3420598E4,5.066208E-3,5.155746E-2,-7.238543E-2,1.8119318E-2,-1.5825376E-1,-3.174222E-2,7.803496E-3,7.415617E-2,-9.62476E-2,2.2967367E-2,2.6526166E-2,8.9466356E-2],"split_indices":[8,4,0,0,0,0,11,6,15,4,4,6,6,1,0,8,4,0,1,0,0,0,0,0,0,0,0,0,0,0,0],"split_type":[0,0,0,0,0,0,0,0,0,0,0,0,0,0,0,0,0,0,0,0,0,0,0,0,0,0,0,0,0,0,0],"sum_hessian":[3.766284E2,3.3837665E2,3.825174E1,3.055702E1,3.078196E2,2.8282E2,2.4999619E1,2.7745242E2,5.3675814E0,1.4597274E1,1.0402346E1,3.1843496E1,2.4560892E2,3.861718E0,1.5058635E0,9.111273E0,5.486E0,1.1495682E0,9.252777E0,6.0475216E0,2.5795973E1,1.3793726E0,2.4422955E2,1.1903902E0,2.6713278E0,4.1405244E0,4.970749E0,1.9402125E0,3.5457878E0,1.2349219E0,8.017856E0],"tree_param":{"num_deleted":"0","num_feature":"16","num_nodes":"31","size_leaf_vector":"1"}},{"base_weights":[-1.1396124E-2,-1.0211618E-1,2.743778E-1,3.6953747E-1,-9.761709E-2,4.048461E-1,-9.009298E-2,4.736787E-1,1.1308378E-1,6.967611E-1,4.089326E-1,-9.6605204E-2,5.431925E-1,2.755714E-2,7.58087E-2,-8.9198165E-2,4.3305088E-2,9.072553E-3,6.120616E-2],"categories":[],"categories_nodes":[],"categories_segments":[],"categories_sizes":[],"default_left":[0,0,0,0,0,0,0,0,0,0,0,0,0,0,0,0,0,0,0],"id":25,"left_children":[1,-1,3,5,-1,7,-1,9,11,13,15,-1,17,-1,-1,-1,-1,-1,-1],"loss_changes":[1.0748779E2,0E0,3.4913788E1,1.2501217E1,0E0,5.246773E0,0E0,2.7949295E0,2.4517937E1,9.9334335E-1,5.6475697E0,0E0,1.1161747E0,0E0,0E0,0E0,0E0,0E0,0E0],"parents":[2147483647,0,0,2,2,3,3,5,5,7,7,8,8,9,9,10,10,12,12],"right_children":[2,-1,4,6,-1,8,-1,10,12,14,16,-1,18,-1,-1,-1,-1,-1,-1],"split_conditions":[6.51E2,-1.0211618E-1,4.0125453E-1,3E0,-9.761709E-2,1E0,-9.009298E-2,5.6041694E0,2E0,2.5E1,5.711497E0,-9.6605204E-2,2.887579E4,2.755714E-2,7.58087E-2,-8.9198165E-2,4.3305088E-2,9.072553E-3,6.120616E-2],"split_indices":[3,0,8,10,0,10,0,6,10,0,6,0,1,0,0,0,0,0,0],"split_type":[0,0,0,0,0,0,0,0,0,0,0,0,0,0,0,0,0,0,0],"sum_hessian":[3.705202E2,8.11628E1,2.893574E2,2.6955063E2,1.9806776E1,2.629248E2,6.6258254E0,2.1223158E2,5.069322E1,4.5545017E1,1.6668657E2,1.4091588E1,3.660163E1,6.4868064E0,3.9058212E1,2.3790555E0,1.6430751E2,5.141242E0,3.1460388E1],"tree_param":{"num_deleted":"0","num_feature":"16","num_nodes":"19","size_leaf_vector":"1"}},{"base_weights":[-7.3194383E-3,-1.0204356E-1,1.0005173E-1,2.0911226E-1,-9.4261134E-1,3.3889836E-1,-2.433518E-1,-9.988736E-2,-2.902734E-1,2.7451563E-1,5.808894E-1,-9.696403E-2,3.00953E-2,-6.7265205E-2,3.9387986E-2,2.3056446E-1,6.0667676E-1,-6.739587E-2,6.227138E-1,2.7159387E-1,-9.261668E-2,2.6021624E-2,-2.118907E-2,1.7390478E-2,7.232065E-2,-8.174267E-2,5.865247E-2,7.527645E-2,4.6532746E-2,3.8280737E-2,-1.14021115E-2],"categories":[],"categories_nodes":[],"categories_segments":[],"categories_sizes":[],"default_left":[0,0,0,0,0,0,0,0,0,0,0,0,0,0,0,0,0,0,0,0,0,0,0,0,0,0,0,0,0,0,0],"id":26,"left_children":[1,-1,3,5,7,9,11,-1,13,15,17,-1,19,-1,-1,21,23,25,27,29,-1,-1,-1,-1,-1,-1,-1,-1,-1,-1,-1],"loss_changes":[3.8405277E1,0E0,3.6504272E1,1.7104708E1,8.2637787E-1,3.3565636E0,1.2977106E1,0E0,1.2654914E0,2.4900646E0,1.303546E0,0E0,1.1413404E1,0E0,0E0,2.1635656E0,9.049511E-1,2.3050404E0,5.463505E-1,1.7316782E0,0E0,0E0,0E0,0E0,0E0,0E0,0E0,0E0,0E0,0E0,0E0],"parents":[2147483647,0,0,2,2,3,3,4,4,5,5,6,6,8,8,9,9,10,10,12,12,15,15,16,16,17,17,18,18,19,19],"right_children":[2,-1,4,6,8,10,12,-1,14,16,18,-1,20,-1,-1,22,24,26,28,30,-1,-1,-1,-1,-1,-1,-1,-1,-1,-1,-1],"split_conditions":[1.3E1,-1.0204356E-1,3.9961457E-1,1E0,7E0,3.4242392E-1,2E0,-9.988736E-2,7.338883E4,7.048971E4,2E0,-9.696403E-2,3E0,-6.7265205E-2,3.9387986E-2,5.866933E4,1.8882613E-1,2.0874885E4,5.2E1,9.380764E4,-9.261668E-2,2.6021624E-2,-2.118907E-2,1.7390478E-2,7.232065E-2,-8.174267E-2,5.865247E-2,7.527645E-2,4.6532746E-2,3.8280737E-2,-1.14021115E-2],"split_indices":[4,0,8,10,5,8,10,0,1,2,5,0,10,0,0,2,8,2,4,1,0,0,0,0,0,0,0,0,0,0,0],"split_type":[0,0,0,0,0,0,0,0,0,0,0,0,0,0,0,0,0,0,0,0,0,0,0,0,0,0,0,0,0,0,0],"sum_hessian":[3.5111774E2,3.2831123E1,3.1828662E2,2.8887073E2,2.9415873E1,2.2467523E2,6.4195496E1,2.6591232E1,2.8246403E0,1.7914688E2,4.5528362E1,1.6862337E1,4.733316E1,1.8227192E0,1.0019212E0,1.5970856E2,1.9438313E1,2.7222137E0,4.280615E1,3.8361233E1,8.971928E0,1.500637E2,9.644857E0,4.6524057E0,1.4785907E1,1.1514683E0,1.5707455E0,2.1367203E1,2.1438948E1,2.977984E1,8.581391E0],"tree_param":{"num_deleted":"0","num_feature":"16","num_nodes":"31","size_leaf_vector":"1"}},{"base_weights":[-3.2436743E-2,-1.0139438E-1,6.602889E-2,1.5768094E-1,-9.797527E-2,2.5606385E-1,-2.0560265E-1,1.8139623E-1,3.9707917E-1,-9.631639E-2,6.5593146E-2,4.7792387E-1,1.1236294E-1,-3.4561962E-2,4.3299422E-1,2.8262973E-1,-9.1030486E-2,5.2772027E-2,-3.902752E-2,-1.0553607E-2,1.9475156E-2,4.0427934E-2,-3.8314078E-2,7.1845576E-2,3.665138E-2,-4.1456487E-2,3.2101355E-2],"categories":[],"categories_nodes":[],"categories_segments":[],"categories_sizes":[],"default_left":[0,0,0,0,0,0,0,0,0,0,0,0,0,0,0,0,0,0,0,0,0,0,0,0,0,0,0],"id":27,"left_children":[1,-1,3,5,-1,7,9,11,13,-1,15,17,19,21,23,25,-1,-1,-1,-1,-1,-1,-1,-1,-1,-1,-1],"loss_changes":[3.3711353E1,0E0,3.0569315E1,1.051099E1,0E0,2.357113E0,1.2988319E1,3.0716367E0,1.2400656E0,0E0,1.0268018E1,1.4391589E0,2.2673392E0,1.2251489E0,1.122613E0,1.1882119E0,0E0,0E0,0E0,0E0,0E0,0E0,0E0,0E0,0E0,0E0,0E0],"parents":[2147483647,0,0,2,2,3,3,5,5,6,6,7,7,8,8,10,10,11,11,12,12,13,13,14,14,15,15],"right_children":[2,-1,4,6,-1,8,10,12,14,-1,16,18,20,22,24,26,-1,-1,-1,-1,-1,-1,-1,-1,-1,-1,-1],"split_conditions":[1.3E1,-1.0139438E-1,4.0125453E-1,1E0,-9.797527E-2,3.0488518E-1,2E0,1.7318545E-1,1.8E1,-9.631639E-2,3E0,2.4E2,2.1280591E-1,4E0,2.9E1,1.2772705E-1,-9.1030486E-2,5.2772027E-2,-3.902752E-2,-1.0553607E-2,1.9475156E-2,4.0427934E-2,-3.8314078E-2,7.1845576E-2,3.665138E-2,-4.1456487E-2,3.2101355E-2],"split_indices":[4,0,8,10,0,8,10,8,4,0,10,4,8,5,4,8,0,0,0,0,0,0,0,0,0,0,0],"split_type":[0,0,0,0,0,0,0,0,0,0,0,0,0,0,0,0,0,0,0,0,0,0,0,0,0,0,0],"sum_hessian":[3.471246E2,3.0801119E1,3.163235E2,2.9161557E2,2.47079E1,2.2970343E2,6.1912163E1,1.5167686E2,7.802655E1,1.564835E1,4.6263813E1,2.7524446E1,1.2415242E2,5.9964547E0,7.20301E1,3.8427948E1,7.8358626E0,2.6402285E1,1.1221613E0,3.398608E1,9.016634E1,2.5838006E0,3.4126542E0,1.1753689E1,6.027641E1,1.4938312E0,3.6934116E1],"tree_param":{"num_deleted":"0","num_feature":"16","num_nodes":"27","size_leaf_vector":"1"}},{"base_weights":[-3.310459E-2,-1.0182239E-1,2.4407865E-1,-1.0024041E-1,3.543726E-1,4.3729314E-1,-9.500921E-2,4.7061908E-1,-8.577662E-2,2.1486433E-2,4.9476764E-1,-5.110966E-2,4.874491E-2,5.3998083E-2,2.7790263E-2],"categories":[],"categories_nodes":[],"categories_segments":[],"categories_sizes":[],"default_left":[0,0,0,0,0,0,0,0,0,0,0,0,0,0,0],"id":28,"left_children":[1,-1,3,-1,5,7,-1,9,-1,11,13,-1,-1,-1,-1],"loss_changes":[9.026604E1,0E0,3.5836067E1,0E0,2.6141905E1,1.0084682E1,0E0,2.3681793E0,0E0,3.285747E0,1.890316E0,0E0,0E0,0E0,0E0],"parents":[2147483647,0,0,2,2,4,4,5,5,7,7,9,9,10,10],"right_children":[2,-1,4,-1,6,8,-1,10,-1,12,14,-1,-1,-1,-1],"split_conditions":[6.51E2,-1.0182239E-1,1.3E1,-1.0024041E-1,4.0125453E-1,3E0,-9.500921E-2,2E0,-8.577662E-2,3E0,1E0,-5.110966E-2,4.874491E-2,5.3998083E-2,2.7790263E-2],"split_indices":[3,0,4,0,8,10,0,5,0,14,10,0,0,0,0],"split_type":[0,0,0,0,0,0,0,0,0,0,0,0,0,0,0],"sum_hessian":[3.286637E2,7.15827E1,2.57081E2,2.0240887E1,2.3684012E2,2.2330981E2,1.3530302E1,2.1832814E2,4.9816628E0,1.1236328E1,2.0709183E2,5.198135E0,6.038193E0,1.7013185E2,3.6959972E1],"tree_param":{"num_deleted":"0","num_feature":"16","num_nodes":"15","size_leaf_vector":"1"}},{"base_weights":[-1.1279346E-2,-1.01382636E-1,2.5188953E-1,-9.948935E-2,3.5806042E-1,4.3859854E-1,-8.537819E-1,5.4521483E-1,2.5928432E-2,-1.6987339E-2,-9.398588E-2,3.7463593E-1,6.7639744E-1,-9.323197E-2,3.0837873E-1,-3.0498808E-2,4.227817E-2,7.0991635E-2,-2.8455377E-2,4.981697E-2,-8.410587E-2],"categories":[],"categories_nodes":[],"categories_segments":[],"categories_sizes":[],"default_left":[0,0,0,0,0,0,0,0,0,0,0,0,0,0,0,0,0,0,0,0,0],"id":29,"left_children":[1,-1,3,-1,5,7,9,11,13,-1,-1,15,17,-1,19,-1,-1,-1,-1,-1,-1],"loss_changes":[8.384705E1,0E0,3.3681427E1,0E0,2.308912E1,9.6164665E0,7.1411705E-1,3.637947E0,1.2735322E1,0E0,0E0,2.6759357E0,3.3283195E0,0E0,8.331922E0,0E0,0E0,0E0,0E0,0E0,0E0],"parents":[2147483647,0,0,2,2,4,4,5,5,6,6,7,7,8,8,11,11,12,12,14,14],"right_children":[2,-1,4,-1,6,8,10,12,14,-1,-1,16,18,-1,20,-1,-1,-1,-1,-1,-1],"split_conditions":[6.51E2,-1.01382636E-1,1.3E1,-9.948935E-2,3.9961457E-1,1E0,4.0125453E-1,4.6E1,2E0,-1.6987339E-2,-9.398588E-2,2.2721379E4,1.8291167E5,-9.323197E-2,3E0,-3.0498808E-2,4.227817E-2,7.0991635E-2,-2.8455377E-2,4.981697E-2,-8.410587E-2],"split_indices":[3,0,4,0,8,10,8,4,10,0,0,1,1,0,10,0,0,0,0,0,0],"split_type":[0,0,0,0,0,0,0,0,0,0,0,0,0,0,0,0,0,0,0,0,0],"sum_hessian":[3.158282E2,6.507423E1,2.5075395E2,1.9020643E1,2.317333E2,2.1789055E2,1.3842767E1,1.7289952E2,4.4991028E1,1.8798954E0,1.1962872E1,7.683957E1,9.605995E1,9.718607E0,3.527242E1,4.730423E0,7.2109146E1,9.3074646E1,2.9852993E0,3.076003E1,4.512388E0],"tree_param":{"num_deleted":"0","num_feature":"16","num_nodes":"21","size_leaf_vector":"1"}},{"base_weights":[-4.6212375E-2,-1.01002686E-1,1.9701229E-1,-9.849883E-2,2.907254E-1,3.2051852E-1,-8.530305E-2,3.753981E-1,8.674949E-2,5.759029E-1,2.969822E-1,-9.36149E-2,4.4997057E-1,2.5675436E-2,8.735301E-2,-1.3246297E-2,3.6044303E-2,8.97497E-2,3.0918334E-2],"categories":[],"categories_nodes":[],"categories_segments":[],"categories_sizes":[],"default_left":[0,0,0,0,0,0,0,0,0,0,0,0,0,0,0,0,0,0,0],"id":30,"left_children":[1,-1,3,-1,5,7,-1,9,11,13,15,-1,17,-1,-1,-1,-1,-1,-1],"loss_changes":[7.132557E1,0E0,2.7215254E1,0E0,7.9753532E0,2.8028164E0,0E0,2.6384754E0,1.6516438E1,4.4464703E0,3.6047497E0,0E0,1.7792797E0,0E0,0E0,0E0,0E0,0E0,0E0],"parents":[2147483647,0,0,2,2,4,4,5,5,7,7,8,8,9,9,10,10,12,12],"right_children":[2,-1,4,-1,6,8,-1,10,12,14,16,-1,18,-1,-1,-1,-1,-1,-1],"split_conditions":[6.51E2,-1.01002686E-1,1.3E1,-9.849883E-2,3E0,1E0,-8.530305E-2,6.86E2,2E0,7.6218257E0,6.98E2,-9.36149E-2,3E0,2.5675436E-2,8.735301E-2,-1.3246297E-2,3.6044303E-2,8.97497E-2,3.0918334E-2],"split_indices":[3,0,4,0,10,10,0,3,10,6,3,0,5,0,0,0,0,0,0],"split_type":[0,0,0,0,0,0,0,0,0,0,0,0,0,0,0,0,0,0,0],"sum_hessian":[3.0241068E2,6.0302048E1,2.4210863E2,1.70865E1,2.2502213E2,2.2001094E2,5.011185E0,1.776905E2,4.2320427E1,4.8172386E1,1.2951813E2,1.0676383E1,3.1644043E1,2.414459E1,2.4027796E1,1.6535257E1,1.12982864E2,6.286388E0,2.5357655E1],"tree_param":{"num_deleted":"0","num_feature":"16","num_nodes":"19","size_leaf_vector":"1"}},{"base_weights":[-2.1372056E-2,-1.0059532E-1,2.1560168E-1,2.872384E-1,-9.426747E-2,3.8924786E-1,1.5783589E-1,1.9501343E-1,5.0967395E-1,7.9533614E-2,6.136347E-1,2.6943445E-1,-9.2387277E-1,2.9716945E-1,6.3219285E-1,4.7966695E-1,-1.8786462E-3,7.779781E-1,-2.6770761E-2,-4.576031E-2,3.643413E-2,-1.3959184E-1,4.672976E-4,4.7330674E-2,-3.928696E-2,7.616788E-2,2.77957E-2,7.511776E-2,-1.2194327E-3,-7.503811E-2,5.8803763E-3,8.417419E-2,3.966358E-3],"categories":[],"categories_nodes":[],"categories_segments":[],"categories_sizes":[],"default_left":[0,0,0,0,0,0,0,0,0,0,0,0,0,0,0,0,0,0,0,0,0,0,0,0,0,0,0,0,0,0,0,0,0],"id":31,"left_children":[1,-1,3,5,-1,7,9,11,13,15,17,19,21,23,25,27,29,31,-1,-1,-1,-1,-1,-1,-1,-1,-1,-1,-1,-1,-1,-1,-1],"loss_changes":[6.741633E1,0E0,1.9601055E1,2.8447666E0,0E0,2.7643452E0,3.4749658E0,4.285434E0,1.7636185E0,2.7830873E0,2.2832646E0,3.3564088E0,1.4306092E0,3.7468567E0,1.9283371E0,1.9379764E0,3.3127747E0,5.4709816E-1,0E0,0E0,0E0,0E0,0E0,0E0,0E0,0E0,0E0,0E0,0E0,0E0,0E0,0E0,0E0],"parents":[2147483647,0,0,2,2,3,3,5,5,6,6,7,7,8,8,9,9,10,10,11,11,12,12,13,13,14,14,15,15,16,16,17,17],"right_children":[2,-1,4,6,-1,8,10,12,14,16,18,20,22,24,26,28,30,32,-1,-1,-1,-1,-1,-1,-1,-1,-1,-1,-1,-1,-1,-1,-1],"split_conditions":[6.51E2,-1.0059532E-1,4.0125453E-1,7.3E2,-9.426747E-2,2.4509025E-1,1.2562387E5,9.114164E4,4.5017055E4,2.8E1,2.137563E5,2.6378031E4,1.1936539E5,3.891195E4,9.930733E4,2.9590714E-1,3.1E1,3E0,-2.6770761E-2,-4.576031E-2,3.643413E-2,-1.3959184E-1,4.672976E-4,4.7330674E-2,-3.928696E-2,7.616788E-2,2.77957E-2,7.511776E-2,-1.2194327E-3,-7.503811E-2,5.8803763E-3,8.417419E-2,3.966358E-3],"split_indices":[3,0,8,3,0,8,1,2,1,0,1,1,2,1,1,8,0,9,0,0,0,0,0,0,0,0,0,0,0,0,0,0,0],"split_type":[0,0,0,0,0,0,0,0,0,0,0,0,0,0,0,0,0,0,0,0,0,0,0,0,0,0,0,0,0,0,0,0,0],"sum_hessian":[2.8701422E2,5.5049393E1,2.3196484E2,2.1916219E2,1.280266E1,1.2142971E2,9.7732475E1,4.7475754E1,7.395396E1,8.440664E1,1.3325834E1,4.522676E1,2.2489953E0,2.8297855E1,4.5656097E1,1.34431305E1,7.096351E1,1.133035E1,1.9954839E0,4.7808986E0,4.044586E1,1.1573129E0,1.0916824E0,2.2793692E1,5.504163E0,3.259225E1,1.3063847E1,8.322076E0,5.121054E0,4.4693594E0,6.649415E1,1.0300658E1,1.0296923E0],"tree_param":{"num_deleted":"0","num_feature":"16","num_nodes":"33","size_leaf_vector":"1"}},{"base_weights":[-3.8212027E-2,-1.0013067E-1,1.7111087E-1,2.4044186E-1,-9.070273E-1,1.4025652E-1,3.2315484E-1,-9.594875E-2,-2.3872806E-2,3.891464E-1,1.4793844E-2,2.728899E-1,7.634615E-1,-8.6951815E-2,4.585761E-1,-7.983613E-1,7.649491E-2,2.9455757E-1,-5.8499392E-2,8.5617386E-2,2.2410661E-1,5.3269304E-2,-6.385133E-2,1.3163827E-3,-1.4352179E-1,3.5228338E-2,-9.050346E-3,8.1170194E-2,2.6030516E-2,-1.1539369E-2,4.535515E-2],"categories":[],"categories_nodes":[],"categories_segments":[],"categories_sizes":[],"default_left":[0,0,0,0,0,0,0,0,0,0,0,0,0,0,0,0,0,0,0,0,0,0,0,0,0,0,0,0,0,0,0],"id":32,"left_children":[1,-1,3,5,7,9,11,-1,-1,13,15,17,19,-1,21,23,25,27,-1,-1,29,-1,-1,-1,-1,-1,-1,-1,-1,-1,-1],"loss_changes":[5.6169067E1,0E0,1.7337772E1,1.7444458E0,2.634468E-1,3.0994542E0,2.3930779E0,0E0,0E0,3.3077374E0,3.430351E0,2.16227E0,3.825426E-1,0E0,2.95861E0,2.5118532E0,2.9486358E0,1.6500692E0,0E0,0E0,2.8910536E-1,0E0,0E0,0E0,0E0,0E0,0E0,0E0,0E0,0E0,0E0],"parents":[2147483647,0,0,2,2,3,3,4,4,5,5,6,6,9,9,10,10,11,11,12,12,14,14,15,15,16,16,17,17,20,20],"right_children":[2,-1,4,6,8,10,12,-1,-1,14,16,18,20,-1,22,24,26,28,-1,-1,30,-1,-1,-1,-1,-1,-1,-1,-1,-1,-1],"split_conditions":[6.51E2,-1.0013067E-1,3.9961457E-1,2.577135E-1,7E0,1.8235207E-1,7E0,-9.594875E-2,-2.3872806E-2,6.56E2,6.3451206E3,2.137563E5,7.72E2,-8.6951815E-2,8.5E2,7.44E2,1E0,6.4514097E3,-5.8499392E-2,8.5617386E-2,6.755808E4,5.3269304E-2,-6.385133E-2,1.3163827E-3,-1.4352179E-1,3.5228338E-2,-9.050346E-3,8.1170194E-2,2.6030516E-2,-1.1539369E-2,4.535515E-2],"split_indices":[3,0,8,8,5,8,5,0,0,3,2,1,3,0,3,3,9,2,0,0,1,0,0,0,0,0,0,0,0,0,0],"split_type":[0,0,0,0,0,0,0,0,0,0,0,0,0,0,0,0,0,0,0,0,0,0,0,0,0,0,0,0,0,0,0],"sum_hessian":[2.7676962E2,4.8738808E1,2.280308E2,2.1498305E2,1.3047763E1,9.844189E1,1.1654115E2,1.1694085E1,1.353677E0,3.228801E1,6.615388E1,1.06053925E2,1.0487227E1,1.0855099E0,3.1202501E1,3.8236048E0,6.2330273E1,1.04081764E2,1.9721594E0,8.447706E0,2.0395215E0,2.970982E1,1.4926811E0,2.1118608E0,1.7117441E0,2.3089598E1,3.9240673E1,5.055527E0,9.902624E1,1.0229613E0,1.0165602E0],"tree_param":{"num_deleted":"0","num_feature":"16","num_nodes":"31","size_leaf_vector":"1"}},{"base_weights":[-3.1411663E-2,-9.97038E-2,1.574682E-1,2.1275438E-1,-9.248183E-2,2.3781101E-1,-8.3323605E-2,4.398154E-1,1.5924585E-1,2.9286173E-1,6.713911E-1,2.2793995E-1,-1.4550987E-1,5.432814E-2,-1.5960045E-2,7.608073E-2,-5.9715003E-2,-2.2737498E-3,3.1213501E-2,-8.927249E-2,1.1910898E-2],"categories":[],"categories_nodes":[],"categories_segments":[],"categories_sizes":[],"default_left":[0,0,0,0,0,0,0,0,0,0,0,0,0,0,0,0,0,0,0,0,0],"id":33,"left_children":[1,-1,3,5,-1,7,-1,9,11,13,15,17,19,-1,-1,-1,-1,-1,-1,-1,-1],"loss_changes":[5.0378098E1,0E0,1.4028873E1,5.983717E0,0E0,3.363719E0,0E0,1.8458366E0,3.3271315E0,4.4479756E0,3.009468E0,2.7253175E0,5.949719E0,0E0,0E0,0E0,0E0,0E0,0E0,0E0,0E0],"parents":[2147483647,0,0,2,2,3,3,5,5,7,7,8,8,9,9,10,10,11,11,12,12],"right_children":[2,-1,4,6,-1,8,-1,10,12,14,16,18,20,-1,-1,-1,-1,-1,-1,-1,-1],"split_conditions":[6.51E2,-9.97038E-2,4.0125453E-1,3E0,-9.248183E-2,6.150137E0,-8.3323605E-2,5.1E1,1E0,3.9E1,3.9465788E-1,7.506558E0,2E0,5.432814E-2,-1.5960045E-2,7.608073E-2,-5.9715003E-2,-2.2737498E-3,3.1213501E-2,-8.927249E-2,1.1910898E-2],"split_indices":[3,0,8,10,0,6,0,0,10,0,8,6,10,0,0,0,0,0,0,0,0],"split_type":[0,0,0,0,0,0,0,0,0,0,0,0,0,0,0,0,0,0,0,0,0],"sum_hessian":[2.7435403E2,4.418494E1,2.3016908E2,2.1974721E2,1.0421874E1,2.1536089E2,4.3863125E0,5.901786E1,1.5634303E2,3.749125E1,2.1526611E1,1.2779025E2,2.8552778E1,2.400482E1,1.3486428E1,2.0483063E1,1.0435481E0,3.2313084E1,9.547717E1,6.8464766E0,2.17063E1],"tree_param":{"num_deleted":"0","num_feature":"16","num_nodes":"21","size_leaf_vector":"1"}},{"base_weights":[-3.4315392E-2,-9.8698765E-2,4.9145386E-2,1.1207429E-1,-9.4086915E-2,1.3755567E-1,-8.48315E-2,1.9165696E-1,-1.00651085E-1,1.2966624E-1,5.1052314E-1,-9.321662E-2,2.1649618E-1,7.3689516E-3,5.0264E-2,7.1186244E-2,5.717967E-3,5.305166E-2,-7.4831344E-4],"categories":[],"categories_nodes":[],"categories_segments":[],"categories_sizes":[],"default_left":[0,0,0,0,0,0,0,0,0,0,0,0,0,0,0,0,0,0,0],"id":34,"left_children":[1,-1,3,5,-1,7,-1,9,11,13,15,-1,17,-1,-1,-1,-1,-1,-1],"loss_changes":[2.0668211E1,0E0,1.5019917E1,5.646924E0,0E0,2.8673983E0,0E0,3.5005536E0,1.116152E1,3.145007E0,2.6089835E0,0E0,2.1770277E0,0E0,0E0,0E0,0E0,0E0,0E0],"parents":[2147483647,0,0,2,2,3,3,5,5,7,7,8,8,9,9,10,10,12,12],"right_children":[2,-1,4,6,-1,8,-1,10,12,14,16,-1,18,-1,-1,-1,-1,-1,-1],"split_conditions":[1.3E1,-9.8698765E-2,4.0125453E-1,3E0,-9.4086915E-2,1E0,-8.48315E-2,1.1025302E5,2E0,7.048971E4,7.3E1,-9.321662E-2,4E0,7.3689516E-3,5.0264E-2,7.1186244E-2,5.717967E-3,5.305166E-2,-7.4831344E-4],"split_indices":[4,0,8,10,0,10,0,1,10,2,4,0,5,0,0,0,0,0,0],"split_type":[0,0,0,0,0,0,0,0,0,0,0,0,0,0,0,0,0,0,0],"sum_hessian":[2.5833224E2,1.9936708E1,2.3839552E2,2.2498167E2,1.3413854E1,2.2000128E2,4.9803805E0,1.7944202E2,4.0559273E1,1.5141257E2,2.8029442E1,1.066305E1,2.9896225E1,1.3269499E2,1.8717587E1,1.901447E1,9.014971E0,1.1876582E1,1.8019642E1],"tree_param":{"num_deleted":"0","num_feature":"16","num_nodes":"19","size_leaf_vector":"1"}},{"base_weights":[-4.5362867E-2,-9.935758E-2,1.3249412E-1,-9.7627014E-2,2.2143131E-1,2.4671984E-1,-8.1819564E-2,4.7841993E-1,1.8418081E-1,-1.1165804E-1,5.5470884E-1,-9.2666626E-1,2.1138412E-1,4.0766496E-2,-8.3887376E-2,1.2125703E-2,6.483136E-2,-1.5935849E-1,2.341093E-2,2.3794778E-2,-2.9065132E-2],"categories":[],"categories_nodes":[],"categories_segments":[],"categories_sizes":[],"default_left":[0,0,0,0,0,0,0,0,0,0,0,0,0,0,0,0,0,0,0,0,0],"id":35,"left_children":[1,-1,3,-1,5,7,-1,9,11,13,15,17,19,-1,-1,-1,-1,-1,-1,-1,-1],"loss_changes":[4.3879627E1,0E0,2.1843124E1,0E0,5.56112E0,2.8066702E0,0E0,1.9452009E0,4.998819E0,2.4651508E0,1.4312401E0,3.4579802E0,2.1489482E0,0E0,0E0,0E0,0E0,0E0,0E0,0E0,0E0],"parents":[2147483647,0,0,2,2,4,4,5,5,7,7,8,8,9,9,10,10,11,11,12,12],"right_children":[2,-1,4,-1,6,8,-1,10,12,14,16,18,20,-1,-1,-1,-1,-1,-1,-1,-1],"split_conditions":[6.51E2,-9.935758E-2,1.3E1,-9.7627014E-2,3E0,5.6041694E0,-8.1819564E-2,2.2241604E0,5.711497E0,6E1,1E0,7.46E2,9.524901E4,4.0766496E-2,-8.3887376E-2,1.2125703E-2,6.483136E-2,-1.5935849E-1,2.341093E-2,2.3794778E-2,-2.9065132E-2],"split_indices":[3,0,4,0,10,6,0,6,6,7,11,3,2,0,0,0,0,0,0,0,0],"split_type":[0,0,0,0,0,0,0,0,0,0,0,0,0,0,0,0,0,0,0,0,0],"sum_hessian":[2.5840677E2,4.0089634E1,2.1831714E2,1.5470618E1,2.0284651E2,1.987741E2,4.0724196E0,4.0835022E1,1.5793907E2,4.6219144E0,3.6213104E1,2.9849327E0,1.5495415E2,2.95272E0,1.6691947E0,6.8390756E0,2.937403E1,1.6589361E0,1.3259966E0,1.4766684E2,7.2873006E0],"tree_param":{"num_deleted":"0","num_feature":"16","num_nodes":"21","size_leaf_vector":"1"}},{"base_weights":[-4.590105E-2,-9.892789E-2,1.1895767E-1,1.674126E-1,-9.080198E-2,1.8722343E-1,-7.843415E-2,1.3603818E-1,5.123707E-1,2.6580593E-1,6.3853315E-3,6.280475E-1,-4.291645E-1,3.3717543E-2,-5.1334918E-2,2.7575312E-2,-1.1498689E-2,-6.5626474E-3,7.259902E-2,5.7877153E-2,-1.3074273E-1],"categories":[],"categories_nodes":[],"categories_segments":[],"categories_sizes":[],"default_left":[0,0,0,0,0,0,0,0,0,0,0,0,0,0,0,0,0,0,0,0,0],"id":36,"left_children":[1,-1,3,5,-1,7,-1,9,11,13,15,17,19,-1,-1,-1,-1,-1,-1,-1,-1],"loss_changes":[3.888216E1,0E0,1.0754596E1,3.9991174E0,0E0,3.274675E0,0E0,2.9423175E0,3.2069426E0,5.0347295E0,2.9268682E0,1.7070837E0,3.8948822E0,0E0,0E0,0E0,0E0,0E0,0E0,0E0,0E0],"parents":[2147483647,0,0,2,2,3,3,5,5,7,7,8,8,9,9,10,10,11,11,12,12],"right_children":[2,-1,4,6,-1,8,-1,10,12,14,16,18,20,-1,-1,-1,-1,-1,-1,-1,-1],"split_conditions":[6.51E2,-9.892789E-2,4.0125453E-1,3E0,-9.080198E-2,6.844E4,-7.843415E-2,4.8E1,3E0,5.6087156E4,3.6E1,2.5E1,5.2E1,3.3717543E-2,-5.1334918E-2,2.7575312E-2,-1.1498689E-2,-6.5626474E-3,7.259902E-2,5.7877153E-2,-1.3074273E-1],"split_indices":[3,0,8,10,0,2,0,7,9,2,0,0,0,0,0,0,0,0,0,0,0],"split_type":[0,0,0,0,0,0,0,0,0,0,0,0,0,0,0,0,0,0,0,0,0],"sum_hessian":[2.4825067E2,3.6185295E1,2.1206537E2,2.0330978E2,8.755592E0,1.9995107E2,3.358712E0,1.7398106E2,2.5970013E1,8.642716E1,8.7553894E1,2.3424978E1,2.5450344E0,7.969451E1,6.7326474E0,2.6801018E1,6.0752876E1,2.9390767E0,2.0485903E1,1.343814E0,1.2012205E0],"tree_param":{"num_deleted":"0","num_feature":"16","num_nodes":"21","size_leaf_vector":"1"}},{"base_weights":[-3.2605816E-2,-9.848737E-2,1.2191432E-1,-9.716733E-2,2.1169136E-1,1.6586438E-1,5.271159E-1,8.249901E-3,2.5293952E-1,8.270262E-1,1.6351093E-1,-2.9500115E-1,3.137312E-1,3.6984034E-2,3.4179288E-1,8.92912E-2,2.711261E-3,4.0551528E-1,-6.980318E-1,-3.066071E-4,-7.7040546E-2,4.0612206E-2,-6.7816846E-2,1.5415929E-2,-7.677492E-2,3.8611162E-2,-3.7262853E-2,7.627871E-2,1.623537E-3,-7.533313E-3,-9.745125E-2],"categories":[],"categories_nodes":[],"categories_segments":[],"categories_sizes":[],"default_left":[0,0,0,0,0,0,0,0,0,0,0,0,0,0,0,0,0,0,0,0,0,0,0,0,0,0,0,0,0,0,0],"id":37,"left_children":[1,-1,3,-1,5,7,9,11,13,15,17,19,21,23,25,-1,-1,27,29,-1,-1,-1,-1,-1,-1,-1,-1,-1,-1,-1,-1],"loss_changes":[3.54261E1,0E0,2.0561403E1,0E0,2.6940527E0,2.323814E0,2.4766073E0,5.775152E0,2.0814E0,6.545353E-1,2.800114E0,4.3415265E0,3.1203146E0,3.2238152E0,2.5881147E0,0E0,0E0,1.3863955E0,4.4564378E-1,0E0,0E0,0E0,0E0,0E0,0E0,0E0,0E0,0E0,0E0,0E0,0E0],"parents":[2147483647,0,0,2,2,4,4,5,5,6,6,7,7,8,8,9,9,10,10,11,11,12,12,13,13,14,14,17,17,18,18],"right_children":[2,-1,4,-1,6,8,10,12,14,16,18,20,22,24,26,-1,-1,28,30,-1,-1,-1,-1,-1,-1,-1,-1,-1,-1,-1,-1],"split_conditions":[6.51E2,-9.848737E-2,1.3E1,-9.716733E-2,6.844E4,4.304864E4,9.114164E4,1E0,3.2E1,1.74E2,5E0,6.7E1,8.27E2,3E1,5.866933E4,8.92912E-2,2.711261E-3,4.8E1,5.3E1,-3.066071E-4,-7.7040546E-2,4.0612206E-2,-6.7816846E-2,1.5415929E-2,-7.677492E-2,3.8611162E-2,-3.7262853E-2,7.627871E-2,1.623537E-3,-7.533313E-3,-9.745125E-2],"split_indices":[3,0,4,0,2,1,2,13,4,4,14,4,3,4,2,0,0,0,0,0,0,0,0,0,0,0,0,0,0,0,0],"split_type":[0,0,0,0,0,0,0,0,0,0,0,0,0,0,0,0,0,0,0,0,0,0,0,0,0,0,0,0,0,0,0],"sum_hessian":[2.3894113E2,3.260865E1,2.0633247E2,1.490836E1,1.9142412E2,1.6847307E2,2.2951052E1,6.034233E1,1.0813074E2,1.1878694E1,1.1072358E1,3.029892E1,3.004341E1,3.193351E1,7.619723E1,1.0867333E1,1.0113606E0,9.057463E0,2.014895E0,1.9395208E1,1.0903712E1,2.8023693E1,2.0197165E0,2.8580418E1,3.353092E0,7.217918E1,4.0180483E0,4.222589E0,4.834874E0,1.0108031E0,1.0040917E0],"tree_param":{"num_deleted":"0","num_feature":"16","num_nodes":"31","size_leaf_vector":"1"}},{"base_weights":[-5.5939365E-2,-9.810904E-2,8.53408E-2,1.2911132E-1,-8.96412E-2,1.9740933E-1,-1.5081652E-1,3.30913E-1,5.4365832E-2,-9.1609895E-2,9.689778E-2,-1.47569E-1,4.0693024E-1,4.8844585E-1,-1.0720629E-2,2.2179453E-1,-7.668384E-2,4.292689E-2,-7.999213E-2,2.875121E-2,7.386228E-2,6.551858E-2,-4.758707E-2,2.1419167E-3,-8.68218E-2,-5.340312E-2,3.026217E-2],"categories":[],"categories_nodes":[],"categories_segments":[],"categories_sizes":[],"default_left":[0,0,0,0,0,0,0,0,0,0,0,0,0,0,0,0,0,0,0,0,0,0,0,0,0,0,0],"id":38,"left_children":[1,-1,3,5,-1,7,9,11,13,-1,15,17,19,21,23,25,-1,-1,-1,-1,-1,-1,-1,-1,-1,-1,-1],"loss_changes":[3.0683964E1,0E0,8.882864E0,3.7805696E0,0E0,3.0020084E0,7.490631E0,3.02814E0,2.1959434E0,0E0,3.449742E0,4.829192E0,2.5873175E0,1.9408922E0,1.9038999E0,1.8316337E0,0E0,0E0,0E0,0E0,0E0,0E0,0E0,0E0,0E0,0E0,0E0],"parents":[2147483647,0,0,2,2,3,3,5,5,6,6,7,7,8,8,10,10,11,11,12,12,13,13,14,14,15,15],"right_children":[2,-1,4,6,-1,8,10,12,14,-1,16,18,20,22,24,26,-1,-1,-1,-1,-1,-1,-1,-1,-1,-1,-1],"split_conditions":[6.51E2,-9.810904E-2,4.0125453E-1,1E0,-8.96412E-2,7.26E2,2E0,2.4E1,1.7612325E-1,-9.1609895E-2,3E0,5.671729E4,8.446889E4,8.5E2,2.137563E5,6.4514097E3,-7.668384E-2,4.292689E-2,-7.999213E-2,2.875121E-2,7.386228E-2,6.551858E-2,-4.758707E-2,2.1419167E-3,-8.68218E-2,-5.340312E-2,3.026217E-2],"split_indices":[3,0,8,10,0,3,10,0,8,0,10,1,1,3,1,2,0,0,0,0,0,0,0,0,0,0,0],"split_type":[0,0,0,0,0,0,0,0,0,0,0,0,0,0,0,0,0,0,0,0,0,0,0,0,0,0,0],"sum_hessian":[2.3311592E2,3.0095562E1,2.0302037E2,1.9518665E2,7.833722E0,1.5714139E2,3.8045258E1,8.0601746E1,7.653964E1,8.64363E0,2.9401627E1,1.0920789E1,6.9680954E1,9.131894E0,6.740775E1,2.633656E1,3.0650668E0,5.9773374E0,4.943451E0,5.2607613E1,1.707334E1,8.058985E0,1.0729094E0,6.5912315E1,1.4954333E0,2.0026286E0,2.4333931E1],"tree_param":{"num_deleted":"0","num_feature":"16","num_nodes":"27","size_leaf_vector":"1"}},{"base_weights":[-1.53592285E-2,-9.756449E-2,1.1600378E-1,-9.599332E-2,1.9464749E-1,2.3942815E-1,-8.8011146E-2,2.5919726E-1,-7.5026415E-2,1.1039284E-1,3.449392E-1,2.1164699E-2,-5.866429E-2,6.865735E-2,2.2126475E-2],"categories":[],"categories_nodes":[],"categories_segments":[],"categories_sizes":[],"default_left":[0,0,0,0,0,0,0,0,0,0,0,0,0,0,0],"id":39,"left_children":[1,-1,3,-1,5,7,-1,9,-1,11,13,-1,-1,-1,-1],"loss_changes":[2.8857267E1,0E0,1.722316E1,0E0,9.280756E0,3.7495499E0,0E0,2.2443104E0,0E0,4.843397E0,4.6234303E0,0E0,0E0,0E0,0E0],"parents":[2147483647,0,0,2,2,4,4,5,5,7,7,9,9,10,10],"right_children":[2,-1,4,-1,6,8,-1,10,-1,12,14,-1,-1,-1,-1],"split_conditions":[6.51E2,-9.756449E-2,1.3E1,-9.599332E-2,4.0125453E-1,3E0,-8.8011146E-2,4.304864E4,-7.5026415E-2,4.0047094E4,5.5535625E4,2.1164699E-2,-5.866429E-2,6.865735E-2,2.2126475E-2],"split_indices":[3,0,4,0,8,10,0,1,0,1,1,0,0,0,0],"split_type":[0,0,0,0,0,0,0,0,0,0,0,0,0,0,0],"sum_hessian":[2.2686363E2,2.6526125E1,2.0033751E2,1.2882596E1,1.8745491E2,1.8070302E2,6.7519016E0,1.778878E2,2.8152092E0,6.586578E1,1.12022026E2,5.811948E1,7.7463017E0,2.856461E1,8.345741E1],"tree_param":{"num_deleted":"0","num_feature":"16","num_nodes":"15","size_leaf_vector":"1"}},{"base_weights":[-3.3812616E-2,-9.578937E-2,3.150809E-2,5.077399E-2,-8.0168605E-2,2.6698908E-1,-6.443236E-3,4.747509E-1,5.678661E-2,-7.231962E-1,9.257627E-3,-4.620867E-2,5.59558E-1,-4.3085763E-1,2.7968162E-1,-9.8412424E-2,-3.1733082E-3,-6.60982E-2,1.4717579E-1,7.5038336E-2,2.9437888E-2,-6.773162E-2,4.9034055E-2,4.353964E-2,-3.2747313E-2,-1.3110931E-2,3.544921E-2,2.5644233E-2,-3.0412538E-2],"categories":[],"categories_nodes":[],"categories_segments":[],"categories_sizes":[],"default_left":[0,0,0,0,0,0,0,0,0,0,0,0,0,0,0,0,0,0,0,0,0,0,0,0,0,0,0,0,0],"id":40,"left_children":[1,-1,3,5,-1,7,9,11,13,15,17,-1,19,21,23,-1,-1,25,27,-1,-1,-1,-1,-1,-1,-1,-1,-1,-1],"loss_changes":[1.3568555E1,0E0,3.4188704E0,2.5580187E0,0E0,1.8624053E0,1.8564558E0,1.9764214E0,2.5814137E0,6.0675585E-1,1.6916579E0,0E0,8.052902E-1,2.0339894E0,1.6689602E0,0E0,0E0,2.9268868E0,2.912969E0,0E0,0E0,0E0,0E0,0E0,0E0,0E0,0E0,0E0,0E0],"parents":[2147483647,0,0,2,2,3,3,5,5,6,6,7,7,8,8,9,9,10,10,12,12,13,13,14,14,17,17,18,18],"right_children":[2,-1,4,6,-1,8,10,12,14,16,18,-1,20,22,24,-1,-1,26,28,-1,-1,-1,-1,-1,-1,-1,-1,-1,-1],"split_conditions":[1.3E1,-9.578937E-2,3E0,5.6041694E0,-8.0168605E-2,2.3943725E4,5.711497E0,2.3394031E4,3.2776387E4,7.6671445E4,3.6631598E4,-4.620867E-2,5.711416E4,1.0150991E5,6.1E1,-9.8412424E-2,-3.1733082E-3,2E0,1E0,7.5038336E-2,2.9437888E-2,-6.773162E-2,4.9034055E-2,4.353964E-2,-3.2747313E-2,-1.3110931E-2,3.544921E-2,2.5644233E-2,-3.0412538E-2],"split_indices":[4,0,10,6,0,2,6,1,2,1,2,0,1,1,0,0,0,10,10,0,0,0,0,0,0,0,0,0,0],"split_type":[0,0,0,0,0,0,0,0,0,0,0,0,0,0,0,0,0,0,0,0,0,0,0,0,0,0,0,0,0],"sum_hessian":[2.2328773E2,1.3839413E1,2.0944833E2,2.0563257E2,3.815768E0,4.226257E1,1.6337E2,2.0621735E1,2.1640837E1,2.5360703E0,1.6083392E2,1.3425311E0,1.9279203E1,6.496012E0,1.5144824E1,1.5339684E0,1.0021019E0,1.0434343E2,5.6490494E1,1.014735E1,9.131852E0,5.3337564E0,1.1622559E0,1.2278653E1,2.866171E0,9.097032E1,1.3373111E1,4.5826904E1,1.0663587E1],"tree_param":{"num_deleted":"0","num_feature":"16","num_nodes":"29","size_leaf_vector":"1"}},{"base_weights":[-5.4803953E-2,-9.7166754E-2,6.58E-2,-9.4265826E-2,1.3142727E-1,1.8820706E-1,-8.120623E-1,2.0486337E-1,-7.13292E-2,-8.776362E-2,-9.957811E-3,5.5875427E-1,1.6197541E-1,9.382754E-3,7.620088E-2,5.168868E-3,3.292504E-2],"categories":[],"categories_nodes":[],"categories_segments":[],"categories_sizes":[],"default_left":[0,0,0,0,0,0,0,0,0,0,0,0,0,0,0,0,0],"id":41,"left_children":[1,-1,3,-1,5,7,9,11,-1,-1,-1,13,15,-1,-1,-1,-1],"loss_changes":[2.4221888E1,0E0,1.2963977E1,0E0,9.958185E0,2.7506838E0,4.0681458E-1,2.5061865E0,0E0,0E0,0E0,1.6374655E0,2.824039E0,0E0,0E0,0E0,0E0],"parents":[2147483647,0,0,2,2,4,4,5,5,6,6,7,7,11,11,12,12],"right_children":[2,-1,4,-1,6,8,10,12,-1,-1,-1,14,16,-1,-1,-1,-1],"split_conditions":[6.51E2,-9.7166754E-2,1.3E1,-9.4265826E-2,3.9825067E-1,3E0,1.1474287E1,4.370734E0,-7.13292E-2,-8.776362E-2,-9.957811E-3,3.5E1,2.9064023E-1,9.382754E-3,7.620088E-2,5.168868E-3,3.292504E-2],"split_indices":[3,0,4,0,8,10,6,6,0,0,0,4,8,0,0,0,0],"split_type":[0,0,0,0,0,0,0,0,0,0,0,0,0,0,0,0,0],"sum_hessian":[2.1747102E2,2.4460335E1,1.930107E2,1.0976531E1,1.8203416E2,1.7245616E2,9.577999E0,1.7008636E2,2.3698032E0,8.558514E0,1.0194852E0,1.7084558E1,1.530018E2,5.6415777E0,1.1442982E1,9.299675E1,6.000505E1],"tree_param":{"num_deleted":"0","num_feature":"16","num_nodes":"17","size_leaf_vector":"1"}},{"base_weights":[2.2209642E-2,-9.6694045E-2,1.4250924E-1,-9.306454E-2,2.055445E-1,2.451493E-1,-8.5891865E-2,1.7165385E-1,3.9453217E-1,2.3203307E-1,-5.071404E-1,7.770842E-2,6.217781E-1,2.8033564E-2,-2.3665974E-2,-1.0233398E-1,4.4101223E-2,2.8869439E-2,-7.412275E-2,8.558081E-2,4.1351017E-2],"categories":[],"categories_nodes":[],"categories_segments":[],"categories_sizes":[],"default_left":[0,0,0,0,0,0,0,0,0,0,0,0,0,0,0,0,0,0,0,0,0],"id":42,"left_children":[1,-1,3,-1,5,7,-1,9,11,13,15,17,19,-1,-1,-1,-1,-1,-1,-1,-1],"loss_changes":[2.5518211E1,0E0,1.3114152E1,0E0,7.8519053E0,1.8594303E0,0E0,5.0120754E0,4.0635977E0,2.5645757E0,5.3792553E0,4.5331407E0,1.26017E0,0E0,0E0,0E0,0E0,0E0,0E0,0E0,0E0],"parents":[2147483647,0,0,2,2,4,4,5,5,7,7,8,8,9,9,10,10,11,11,12,12],"right_children":[2,-1,4,-1,6,8,-1,10,12,14,16,18,20,-1,-1,-1,-1,-1,-1,-1,-1],"split_conditions":[6.51E2,-9.6694045E-2,1.3E1,-9.306454E-2,4.0125453E-1,7.9E1,-8.5891865E-2,6.8E1,2.4765463E-1,3E0,2E0,2.2835055E-1,3.0366093E-1,2.8033564E-2,-2.3665974E-2,-1.0233398E-1,4.4101223E-2,2.8869439E-2,-7.412275E-2,8.558081E-2,4.1351017E-2],"split_indices":[3,0,4,0,8,4,0,4,8,9,9,8,8,0,0,0,0,0,0,0,0],"split_type":[0,0,0,0,0,0,0,0,0,0,0,0,0,0,0,0,0,0,0,0,0],"sum_hessian":[2.1229091E2,2.2255964E1,1.9003496E2,9.779434E0,1.8025552E2,1.7453152E2,5.7239857E0,1.18419136E2,5.6112396E1,1.093505E2,9.068635E0,2.3997416E1,3.211498E1,9.949828E1,9.852218E0,5.820502E0,3.248133E0,1.9596231E1,4.401185E0,1.3658169E1,1.8456812E1],"tree_param":{"num_deleted":"0","num_feature":"16","num_nodes":"21","size_leaf_vector":"1"}},{"base_weights":[-1.1928696E-2,-9.624618E-2,9.597564E-2,-9.205019E-2,1.5145054E-1,1.8693767E-1,-8.4967725E-2,2.0149413E-1,-6.864215E-2,1.15811005E-1,3.537451E-1,1.5734954E-2,-6.928936E-2,3.8649995E-2,-7.024671E-2],"categories":[],"categories_nodes":[],"categories_segments":[],"categories_sizes":[],"default_left":[0,0,0,0,0,0,0,0,0,0,0,0,0,0,0],"id":43,"left_children":[1,-1,3,-1,5,7,-1,9,-1,11,13,-1,-1,-1,-1],"loss_changes":[2.1620033E1,0E0,1.0819557E1,0E0,6.570003E0,2.3643599E0,0E0,2.2159095E0,0E0,3.87772E0,2.4100127E0,0E0,0E0,0E0,0E0],"parents":[2147483647,0,0,2,2,4,4,5,5,7,7,9,9,10,10],"right_children":[2,-1,4,-1,6,8,-1,10,-1,12,14,-1,-1,-1,-1],"split_conditions":[6.51E2,-9.624618E-2,1.3E1,-9.205019E-2,4.0125453E-1,3E0,-8.4967725E-2,2.9874155E-1,-6.864215E-2,1.93E2,2.137563E5,1.5734954E-2,-6.928936E-2,3.8649995E-2,-7.024671E-2],"split_indices":[3,0,4,0,8,10,0,8,0,4,1,0,0,0,0],"split_type":[0,0,0,0,0,0,0,0,0,0,0,0,0,0,0],"sum_hessian":[2.088895E2,2.0488243E1,1.8840125E2,8.943041E0,1.794582E2,1.7410013E2,5.358081E0,1.7200261E2,2.0975144E0,1.11188896E2,6.081372E1,1.0652286E2,4.6660395E0,5.9599514E1,1.214206E0],"tree_param":{"num_deleted":"0","num_feature":"16","num_nodes":"15","size_leaf_vector":"1"}},{"base_weights":[-4.796678E-2,-9.568268E-2,4.8562087E-2,-9.146852E-2,1.0068492E-1,4.1034546E-1,5.4365046E-2,-2.9934105E-1,5.211297E-1,1.8143557E-2,3.6489794E-1,5.164733E-2,-8.316367E-2,7.4025047E-1,1.390122E-1,6.223256E-2,-3.4870148E-1,5.055274E-1,-5.106895E-2,8.051558E-2,3.668045E-3,-2.819553E-2,7.116791E-2,3.8169075E-3,7.72355E-2,-1.22472584E-1,-1.4066636E-3,-2.1028178E-2,7.22081E-2],"categories":[],"categories_nodes":[],"categories_segments":[],"categories_sizes":[],"default_left":[0,0,0,0,0,0,0,0,0,0,0,0,0,0,0,0,0,0,0,0,0,0,0,0,0,0,0,0,0],"id":44,"left_children":[1,-1,3,-1,5,7,9,11,13,15,17,-1,-1,19,21,23,25,27,-1,-1,-1,-1,-1,-1,-1,-1,-1,-1,-1],"loss_changes":[1.7814583E1,0E0,9.332002E0,0E0,2.4948096E0,1.939285E0,1.7233993E0,2.0352924E0,1.5703559E0,2.2665186E0,2.2300484E0,0E0,0E0,5.3989744E-1,2.2532554E0,2.1022623E0,4.3924637E0,2.368591E0,0E0,0E0,0E0,0E0,0E0,0E0,0E0,0E0,0E0,0E0,0E0],"parents":[2147483647,0,0,2,2,4,4,5,5,6,6,7,7,8,8,9,9,10,10,13,13,14,14,15,15,16,16,17,17],"right_children":[2,-1,4,-1,6,8,10,12,14,16,18,-1,-1,20,22,24,26,28,-1,-1,-1,-1,-1,-1,-1,-1,-1,-1,-1],"split_conditions":[6.51E2,-9.568268E-2,1.3E1,-9.146852E-2,6.66E2,2.7238908E4,1.55E2,4.3E1,1E0,1.15E2,2.72E2,5.164733E-2,-8.316367E-2,3E0,2.8818629E4,1.09E2,1.2769625E4,3E0,-5.106895E-2,8.051558E-2,3.668045E-3,-2.819553E-2,7.116791E-2,3.8169075E-3,7.72355E-2,-1.22472584E-1,-1.4066636E-3,-2.1028178E-2,7.22081E-2],"split_indices":[3,0,4,0,3,1,4,4,12,4,4,0,0,9,2,4,2,5,0,0,0,0,0,0,0,0,0,0,0],"split_type":[0,0,0,0,0,0,0,0,0,0,0,0,0,0,0,0,0,0,0,0,0,0,0,0,0,0,0,0,0],"sum_hessian":[2.0152899E2,1.8493408E1,1.8303558E2,8.5464115E0,1.7448918E2,2.1681786E1,1.5280739E2,2.6977727E0,1.8984013E1,1.377932E2,1.5014185E1,1.0769411E0,1.6208317E0,1.1469646E1,7.514366E0,1.2375067E2,1.4042528E1,1.3300597E1,1.7135876E0,1.03687315E1,1.1009151E0,4.623371E0,2.8909953E0,1.2071387E2,3.0368078E0,3.1462429E0,1.0896285E1,3.095967E0,1.0204631E1],"tree_param":{"num_deleted":"0","num_feature":"16","num_nodes":"29","size_leaf_vector":"1"}},{"base_weights":[-2.8186234E-2,-9.504093E-2,5.9007075E-2,-8.997329E-2,1.0432431E-1,2.1232763E-1,-2.937068E-2,9.060627E-2,4.638406E-1,-2.0957647E-1,2.2315986E-1,4.7093564E-1,-7.7474035E-2,5.2748036E-1,-2.051127E-1,-3.9582214E-1,3.9643437E-1,3.7188867E-1,-4.476768E-1,1.6594378E-2,8.908572E-2,-3.2277923E-2,3.5149988E-2,8.424323E-2,3.4473315E-2,4.607051E-2,-6.584403E-2,-5.2475233E-2,5.6646224E-2,-1.111869E-2,7.092035E-2,-4.866094E-2,4.9011707E-2,2.0281795E-2,-9.206787E-2],"categories":[],"categories_nodes":[],"categories_segments":[],"categories_sizes":[],"default_left":[0,0,0,0,0,0,0,0,0,0,0,0,0,0,0,0,0,0,0,0,0,0,0,0,0,0,0,0,0,0,0,0,0,0,0],"id":45,"left_children":[1,-1,3,-1,5,7,9,11,13,15,17,19,21,23,25,27,29,31,33,-1,-1,-1,-1,-1,-1,-1,-1,-1,-1,-1,-1,-1,-1,-1,-1],"loss_changes":[1.6365135E1,0E0,8.18558E0,0E0,2.5870335E0,2.9883995E0,3.7212732E0,4.380078E0,1.4721732E0,5.533427E0,3.5696583E0,2.5373664E0,5.162484E0,1.4095831E0,1.3607454E0,4.8800416E0,1.9361197E0,3.1277194E0,2.2308865E0,0E0,0E0,0E0,0E0,0E0,0E0,0E0,0E0,0E0,0E0,0E0,0E0,0E0,0E0,0E0,0E0],"parents":[2147483647,0,0,2,2,4,4,5,5,6,6,7,7,8,8,9,9,10,10,11,11,12,12,13,13,14,14,15,15,16,16,17,17,18,18],"right_children":[2,-1,4,-1,6,8,10,12,14,16,18,20,22,24,26,28,30,32,34,-1,-1,-1,-1,-1,-1,-1,-1,-1,-1,-1,-1,-1,-1,-1,-1],"split_conditions":[6.51E2,-9.504093E-2,1.3E1,-8.997329E-2,7.3E2,7E2,2E0,1.5495619E4,1.3050146E5,9.73469E4,7.2E1,6.70636E4,8E1,3.6E1,7.14E2,6.844E4,4E0,2E1,4E0,1.6594378E-2,8.908572E-2,-3.2277923E-2,3.5149988E-2,8.424323E-2,3.4473315E-2,4.607051E-2,-6.584403E-2,-5.2475233E-2,5.6646224E-2,-1.111869E-2,7.092035E-2,-4.866094E-2,4.9011707E-2,2.0281795E-2,-9.206787E-2],"split_indices":[3,0,4,0,3,3,11,2,1,1,7,1,4,4,3,2,5,4,5,0,0,0,0,0,0,0,0,0,0,0,0,0,0,0,0],"split_type":[0,0,0,0,0,0,0,0,0,0,0,0,0,0,0,0,0,0,0,0,0,0,0,0,0,0,0,0,0,0,0,0,0,0,0],"sum_hessian":[2.0181947E2,1.6577986E1,1.8524149E2,7.509748E0,1.7773174E2,9.7986664E1,7.974508E1,6.694731E1,3.1039347E1,4.6635838E1,3.3109238E1,1.9966223E1,4.698109E1,2.8536097E1,2.5032504E0,3.593787E1,1.0697967E1,2.7465578E1,5.643661E0,1.2374047E1,7.592176E0,3.0046694E1,1.6934399E1,9.152532E0,1.9383566E1,1.0073892E0,1.4958612E0,3.2092663E1,3.8452055E0,4.324253E0,6.3737135E0,2.9474277E0,2.451815E1,2.6165154E0,3.0271459E0],"tree_param":{"num_deleted":"0","num_feature":"16","num_nodes":"35","size_leaf_vector":"1"}},{"base_weights":[2.351039E-2,-9.442935E-2,1.072633E-1,-8.922909E-2,1.5215218E-1,1.8643454E-1,-8.428696E-2,2.619262E-1,-1.21409714E-1,3.6319906E-1,1.192787E-2,-9.0725996E-2,1.393853E-1,1.649149E-2,4.6244077E-2,-5.080517E-2,1.761827E-2,2.4434676E-2,-7.013087E-2],"categories":[],"categories_nodes":[],"categories_segments":[],"categories_sizes":[],"default_left":[0,0,0,0,0,0,0,0,0,0,0,0,0,0,0,0,0,0,0],"id":46,"left_children":[1,-1,3,-1,5,7,-1,9,11,13,15,-1,17,-1,-1,-1,-1,-1,-1],"loss_changes":[1.6324596E1,0E0,8.441232E0,0E0,6.229156E0,4.0498056E0,0E0,3.5189857E0,7.244623E0,1.8720083E0,3.604523E0,0E0,2.5489602E0,0E0,0E0,0E0,0E0,0E0,0E0],"parents":[2147483647,0,0,2,2,4,4,5,5,7,7,8,8,9,9,10,10,12,12],"right_children":[2,-1,4,-1,6,8,-1,10,12,14,16,-1,18,-1,-1,-1,-1,-1,-1],"split_conditions":[6.51E2,-9.442935E-2,1.3E1,-8.922909E-2,4.0125453E-1,1E0,-8.428696E-2,9.712463E0,2E0,3.4E1,1.041076E1,-9.0725996E-2,3E0,1.649149E-2,4.6244077E-2,-5.080517E-2,1.761827E-2,2.4434676E-2,-7.013087E-2],"split_indices":[3,0,4,0,8,10,0,6,10,4,6,0,10,0,0,0,0,0,0],"split_type":[0,0,0,0,0,0,0,0,0,0,0,0,0,0,0,0,0,0,0],"sum_hessian":[1.9914842E2,1.5043142E1,1.8410529E2,7.101278E0,1.7700401E2,1.7189423E2,5.1097884E0,1.381623E2,3.3731934E1,9.800729E1,4.015499E1,7.7874093E0,2.5944525E1,3.357882E1,6.4428474E1,9.137007E0,3.1017984E1,2.3695473E1,2.2490523E0],"tree_param":{"num_deleted":"0","num_feature":"16","num_nodes":"19","size_leaf_vector":"1"}},{"base_weights":[-3.812441E-2,-8.9261204E-2,9.411497E-4,3.6878265E-2,-8.68549E-2,5.1416937E-2,-7.154842E-2,-2.7831646E-2,1.910729E-1,4.500997E-2,-8.080214E-1,1.3104172E-1,8.607079E-2,-2.2687432E-3,3.8178068E-2,-1.4696716E-1,1.8267178E-3,4.0819168E-2,-2.2944028E-3],"categories":[],"categories_nodes":[],"categories_segments":[],"categories_sizes":[],"default_left":[0,0,0,0,0,0,0,0,0,0,0,0,0,0,0,0,0,0,0],"id":47,"left_children":[1,-1,3,5,-1,7,-1,9,11,13,15,17,-1,-1,-1,-1,-1,-1,-1],"loss_changes":[6.36822E0,0E0,5.7629724E0,1.9738344E0,0E0,1.9384115E0,0E0,6.4186378E0,2.434194E0,2.371987E0,5.2985744E0,2.5412412E0,0E0,0E0,0E0,0E0,0E0,0E0,0E0],"parents":[2147483647,0,0,2,2,3,3,5,5,7,7,8,8,9,9,10,10,11,11],"right_children":[2,-1,4,6,-1,8,-1,10,12,14,16,18,-1,-1,-1,-1,-1,-1,-1],"split_conditions":[1.3E1,-8.9261204E-2,4.0125453E-1,3E0,-8.68549E-2,2.9874155E-1,-7.154842E-2,2.8815144E-1,1.2401304E1,1.1025302E5,4.8E1,3.349189E-1,8.607079E-2,-2.2687432E-3,3.8178068E-2,-1.4696716E-1,1.8267178E-3,4.0819168E-2,-2.2944028E-3],"split_indices":[4,0,8,10,0,8,0,8,6,1,4,8,0,0,0,0,0,0,0],"split_type":[0,0,0,0,0,0,0,0,0,0,0,0,0,0,0,0,0,0,0],"sum_hessian":[1.897484E2,7.340448E0,1.8240796E2,1.7608762E2,6.3203354E0,1.736634E2,2.424217E0,1.1130401E2,6.235939E1,1.0266144E2,8.642571E0,5.832627E1,4.0331197E0,8.625513E1,1.6406311E1,4.3670316E0,4.27554E0,2.024237E1,3.80839E1],"tree_param":{"num_deleted":"0","num_feature":"16","num_nodes":"19","size_leaf_vector":"1"}},{"base_weights":[1.988973E-2,-9.3816936E-2,1.00327075E-1,-8.6768396E-2,1.3914889E-1,1.5445758E-1,-6.971423E-2,1.0854257E-1,4.55478E-1,5.992903E-1,7.806824E-2,8.05957E-1,9.372566E-2,7.825635E-2,1.1093497E-2,-6.6833186E-4,2.471802E-2,1.6147247E-2,8.671478E-2,-5.1191833E-2,4.1689195E-2],"categories":[],"categories_nodes":[],"categories_segments":[],"categories_sizes":[],"default_left":[0,0,0,0,0,0,0,0,0,0,0,0,0,0,0,0,0,0,0,0,0],"id":48,"left_children":[1,-1,3,-1,5,7,-1,9,11,13,15,17,19,-1,-1,-1,-1,-1,-1,-1,-1],"loss_changes":[1.4649311E1,0E0,6.7027245E0,0E0,2.2745676E0,2.259153E0,0E0,2.1402335E0,2.68749E0,6.6503596E-1,1.9915433E0,2.9130745E-1,2.5338166E0,0E0,0E0,0E0,0E0,0E0,0E0,0E0,0E0],"parents":[2147483647,0,0,2,2,4,4,5,5,7,7,8,8,9,9,10,10,11,11,12,12],"right_children":[2,-1,4,-1,6,8,-1,10,12,14,16,18,20,-1,-1,-1,-1,-1,-1,-1,-1],"split_conditions":[6.51E2,-9.3816936E-2,1.3E1,-8.6768396E-2,3E0,6.717031E4,-6.971423E-2,6.59E2,8.885288E4,2E0,5.3E1,6.844E4,3.2E1,7.825635E-2,1.1093497E-2,-6.6833186E-4,2.471802E-2,1.6147247E-2,8.671478E-2,-5.1191833E-2,4.1689195E-2],"split_indices":[3,0,4,0,10,2,0,3,2,9,0,2,4,0,0,0,0,0,0,0,0],"split_type":[0,0,0,0,0,0,0,0,0,0,0,0,0,0,0,0,0,0,0,0,0],"sum_hessian":[1.8787207E2,1.3725803E1,1.7414627E2,5.8915553E0,1.6825471E2,1.6603075E2,2.2239633E0,1.4523799E2,2.079275E1,7.400327E0,1.3783766E2,9.937251E0,1.0855498E1,4.942883E0,2.4574442E0,9.246081E1,4.537686E1,1.1772149E0,8.7600355E0,3.5737967E0,7.2817016E0],"tree_param":{"num_deleted":"0","num_feature":"16","num_nodes":"21","size_leaf_vector":"1"}},{"base_weights":[-4.4918403E-2,-9.315174E-2,2.444275E-2,-8.578367E-2,5.844958E-2,3.6321938E-1,1.9759579E-2,6.7915946E-1,-1.0042123E-1,-8.906796E-2,3.883918E-2,7.7635646E-1,1.2994503E-2,3.322907E-1,-5.6738E-1,7.5539514E-2,-4.6558246E-1,9.068649E-2,9.468799E-3,-5.2107006E-2,6.905125E-2,-1.1249901E-1,2.7012289E-2,3.5091618E-3,6.7771606E-2,2.8287783E-2,-8.0945656E-2],"categories":[],"categories_nodes":[],"categories_segments":[],"categories_sizes":[],"default_left":[0,0,0,0,0,0,0,0,0,0,0,0,0,0,0,0,0,0,0,0,0,0,0,0,0,0,0],"id":49,"left_children":[1,-1,3,-1,5,7,9,11,13,-1,15,17,-1,19,21,23,25,-1,-1,-1,-1,-1,-1,-1,-1,-1,-1],"loss_changes":[1.1457951E1,0E0,5.253769E0,0E0,1.9730163E0,2.8308342E0,2.641493E0,5.0475216E-1,1.9089594E0,0E0,2.7741094E0,7.537999E-1,0E0,1.9035366E0,2.3888216E0,3.3563843E0,2.8475335E0,0E0,0E0,0E0,0E0,0E0,0E0,0E0,0E0,0E0,0E0],"parents":[2147483647,0,0,2,2,4,4,5,5,6,6,7,7,8,8,10,10,11,11,13,13,14,14,15,15,16,16],"right_children":[2,-1,4,-1,6,8,10,12,14,-1,16,18,-1,20,22,24,26,-1,-1,-1,-1,-1,-1,-1,-1,-1,-1],"split_conditions":[6.51E2,-9.315174E-2,1.3E1,-8.578367E-2,4.370734E0,7.41E2,4.5433116E0,1E0,4.7E1,-8.906796E-2,8.885288E4,7.2E1,1.2994503E-2,7.7E2,2.4689617E4,6.844E4,6.848632E0,9.068649E-2,9.468799E-3,-5.2107006E-2,6.905125E-2,-1.1249901E-1,2.7012289E-2,3.5091618E-3,6.7771606E-2,2.8287783E-2,-8.0945656E-2],"split_indices":[3,0,4,0,6,3,6,10,0,0,2,7,0,3,2,2,6,0,0,0,0,0,0,0,0,0,0],"split_type":[0,0,0,0,0,0,0,0,0,0,0,0,0,0,0,0,0,0,0,0,0,0,0,0,0,0,0],"sum_hessian":[1.8495145E2,1.2517561E1,1.7243388E2,5.500574E0,1.669333E2,1.7859793E1,1.4907352E2,1.0345313E1,7.51448E0,2.1222415E0,1.4695128E2,8.438361E0,1.9069521E0,4.0499487E0,3.464531E0,1.3777722E2,9.1740465E0,6.805129E0,1.6332321E0,1.0630159E0,2.986933E0,1.8737316E0,1.5907993E0,1.3009695E2,7.6802726E0,2.9438906E0,6.230156E0],"tree_param":{"num_deleted":"0","num_feature":"16","num_nodes":"27","size_leaf_vector":"1"}},{"base_weights":[-6.2584855E-2,-9.248637E-2,5.190475E-4,4.7431882E-2,-7.452032E-1,-8.344084E-2,7.8854546E-2,-9.1629076E-1,-8.180014E-4,1.4123839E-1,-1.7012347E-1,-1.0478876E-1,-9.552682E-3,2.3742215E-1,-1.427788E-1,-8.979648E-2,7.759487E-2,7.186788E-2,1.6527852E-2,-9.174985E-2,-8.389566E-4,4.3582138E-2,-1.7191892E-2],"categories":[],"categories_nodes":[],"categories_segments":[],"categories_sizes":[],"default_left":[0,0,0,0,0,0,0,0,0,0,0,0,0,0,0,0,0,0,0,0,0,0,0],"id":50,"left_children":[1,-1,3,5,7,-1,9,11,-1,13,15,-1,-1,17,19,-1,21,-1,-1,-1,-1,-1,-1],"loss_changes":[9.955857E0,0E0,6.0344663E0,4.5623417E0,1.2798338E0,0E0,2.4719539E0,7.938709E-1,0E0,3.4915874E0,5.8448005E0,0E0,0E0,3.1770673E0,3.3910997E0,0E0,2.2932003E0,0E0,0E0,0E0,0E0,0E0,0E0],"parents":[2147483647,0,0,2,2,3,3,4,4,6,6,7,7,9,9,10,10,13,13,14,14,16,16],"right_children":[2,-1,4,6,8,-1,10,12,-1,14,16,-1,-1,18,20,-1,22,-1,-1,-1,-1,-1,-1],"split_conditions":[6.51E2,-9.248637E-2,3.9637196E-1,1.3E1,1.02527E1,-8.344084E-2,1E0,5E0,-8.180014E-4,1.0017369E1,2E0,-1.0478876E-1,-9.552682E-3,1.7450543E-1,1.0336384E1,-8.979648E-2,1E0,7.186788E-2,1.6527852E-2,-9.174985E-2,-8.389566E-4,4.3582138E-2,-1.7191892E-2],"split_indices":[3,0,8,4,6,0,10,14,0,6,10,0,0,8,6,0,9,0,0,0,0,0,0],"split_type":[0,0,0,0,0,0,0,0,0,0,0,0,0,0,0,0,0,0,0,0,0,0,0],"sum_hessian":[1.8195903E2,1.1476944E1,1.7048209E2,1.6127292E2,9.209166E0,4.6696715E0,1.5660324E2,7.276757E0,1.9324087E0,1.25572556E2,3.1030691E1,6.0327725E0,1.2439842E0,9.392759E1,3.1644964E1,7.21291E0,2.381778E1,1.1076506E1,8.285108E1,3.816521E0,2.7828442E1,9.472068E0,1.4345713E1],"tree_param":{"num_deleted":"0","num_feature":"16","num_nodes":"23","size_leaf_vector":"1"}},{"base_weights":[-2.6789278E-2,-9.166885E-2,3.4666125E-2,7.448664E-2,-7.178738E-1,-8.186296E-2,1.0439955E-1,-2.845355E-1,-9.894003E-2,4.3489063E-1,5.719545E-2,2.7718037E-2,-6.7421496E-2,5.528526E-1,-6.696328E-2,-5.1356876E-1,1.19748764E-1,8.412329E-2,-2.226843E-4,4.5086738E-2,-7.518976E-2,-1.6786883E-2,2.0413943E-2],"categories":[],"categories_nodes":[],"categories_segments":[],"categories_sizes":[],"default_left":[0,0,0,0,0,0,0,0,0,0,0,0,0,0,0,0,0,0,0,0,0,0,0],"id":51,"left_children":[1,-1,3,5,7,-1,9,11,-1,13,15,-1,-1,17,-1,19,21,-1,-1,-1,-1,-1,-1],"loss_changes":[9.641384E0,0E0,5.0077243E0,4.3045053E0,7.0715046E-1,0E0,2.3728137E0,1.2026324E0,0E0,2.853174E0,4.9041257E0,0E0,0E0,2.845726E0,0E0,3.4617734E0,3.0209618E0,0E0,0E0,0E0,0E0,0E0,0E0],"parents":[2147483647,0,0,2,2,3,3,4,4,6,6,7,7,9,9,10,10,13,13,15,15,16,16],"right_children":[2,-1,4,6,8,-1,10,12,-1,14,16,-1,-1,18,-1,20,22,-1,-1,-1,-1,-1,-1],"split_conditions":[6.51E2,-9.166885E-2,3.9825067E-1,1.3E1,4.2E1,-8.186296E-2,1.7171346E-1,4.0125453E-1,-9.894003E-2,8.5E2,1.945074E-1,2.7718037E-2,-6.7421496E-2,5.3E1,-6.696328E-2,3.2410295E4,3E1,8.412329E-2,-2.226843E-4,4.5086738E-2,-7.518976E-2,-1.6786883E-2,2.0413943E-2],"split_indices":[3,0,8,4,0,0,8,8,0,3,8,0,0,0,0,1,0,0,0,0,0,0,0],"split_type":[0,0,0,0,0,0,0,0,0,0,0,0,0,0,0,0,0,0,0,0,0,0,0],"sum_hessian":[1.7471333E2,1.0387132E1,1.643262E2,1.5692365E2,7.4025674E0,4.230988E0,1.5269266E2,3.6404924E0,3.762075E0,1.8056974E1,1.3463568E2,1.6093458E0,2.0311468E0,1.6765863E1,1.2911115E0,1.2585935E1,1.2204974E2,1.06943245E1,6.071539E0,2.317205E0,1.0268729E1,2.7462778E1,9.458696E1],"tree_param":{"num_deleted":"0","num_feature":"16","num_nodes":"23","size_leaf_vector":"1"}},{"base_weights":[-1.9993769E-2,-9.092301E-2,3.5611127E-2,1.7143585E-1,-1.0620935E-1,5.463716E-2,5.423172E-1,-5.827939E-1,-5.343868E-3,9.610151E-2,-1.06141746E-1,6.2519145E-1,-3.437623E-2,-1.1113687E0,1.3253021E-1,2.3331738E-1,-2.9016984E-1,3.3871102E-1,-8.598487E-2,3.133972E-1,7.891393E-1,-3.6635706E-1,-2.3227893E-1,-6.408959E-2,4.5001802E-1,4.882806E-2,4.7127935E-1,-1.1898448E0,-1.3391605E-1,-2.6197165E-2,4.751602E-2,-7.476491E-2,3.665501E-3,-1.3411321E-2,7.336422E-2,2.458677E-2,8.551402E-2,-7.218339E-2,5.3053405E-2,-1.0589272E-2,7.291564E-2,1.9474104E-2,-5.8279302E-2,-6.53814E-3,5.852226E-2,-1.7143841E-1,-4.740357E-2,-2.5553042E-2,5.4416217E-2],"categories":[],"categories_nodes":[],"categories_segments":[],"categories_sizes":[],"default_left":[0,0,0,0,0,0,0,0,0,0,0,0,0,0,0,0,0,0,0,0,0,0,0,0,0,0,0,0,0,0,0,0,0,0,0,0,0,0,0,0,0,0,0,0,0,0,0,0,0],"id":52,"left_children":[1,-1,3,5,7,9,11,13,15,17,-1,19,-1,21,23,25,27,29,31,33,35,37,-1,-1,39,41,43,45,47,-1,-1,-1,-1,-1,-1,-1,-1,-1,-1,-1,-1,-1,-1,-1,-1,-1,-1,-1,-1],"loss_changes":[8.858527E0,0E0,3.2728088E0,3.7254777E0,3.999866E0,3.2042372E0,1.7312512E0,5.643482E0,4.8081474E0,2.9249651E0,0E0,7.3608446E-1,0E0,6.789652E0,2.0245762E0,1.6670737E0,4.3727202E0,2.4446619E0,3.1308277E0,1.6571403E0,2.1821308E-1,2.4327748E0,0E0,0E0,9.462285E-1,2.2148404E0,1.0592415E0,9.3092966E-1,2.497113E0,0E0,0E0,0E0,0E0,0E0,0E0,0E0,0E0,0E0,0E0,0E0,0E0,0E0,0E0,0E0,0E0,0E0,0E0,0E0,0E0],"parents":[2147483647,0,0,2,2,3,3,4,4,5,5,6,6,7,7,8,8,9,9,11,11,13,13,14,14,15,15,16,16,17,17,18,18,19,19,20,20,21,21,24,24,25,25,26,26,27,27,28,28],"right_children":[2,-1,4,6,8,10,12,14,16,18,-1,20,-1,22,24,26,28,30,32,34,36,38,-1,-1,40,42,44,46,48,-1,-1,-1,-1,-1,-1,-1,-1,-1,-1,-1,-1,-1,-1,-1,-1,-1,-1,-1,-1],"split_conditions":[6.51E2,-9.092301E-2,5.509736E4,4.564262E4,6.262668E4,4.4773656E4,6.6E1,2E0,2.8181264E4,4.2E1,-1.06141746E-1,4.924788E4,-3.437623E-2,4E0,1.2769625E4,1.1025302E5,3.239689E4,1E0,4.6E1,2E0,1E0,3E0,-2.3227893E-1,-6.408959E-2,1E0,9.930733E4,6.67E2,1E0,8.09E2,-2.6197165E-2,4.751602E-2,-7.476491E-2,3.665501E-3,-1.3411321E-2,7.336422E-2,2.458677E-2,8.551402E-2,-7.218339E-2,5.3053405E-2,-1.0589272E-2,7.291564E-2,1.9474104E-2,-5.8279302E-2,-6.53814E-3,5.852226E-2,-1.7143841E-1,-4.740357E-2,-2.5553042E-2,5.4416217E-2],"split_indices":[3,0,1,1,1,1,0,11,2,0,0,1,0,14,2,1,2,11,0,11,14,14,0,0,9,1,3,9,3,0,0,0,0,0,0,0,0,0,0,0,0,0,0,0,0,0,0,0,0],"split_type":[0,0,0,0,0,0,0,0,0,0,0,0,0,0,0,0,0,0,0,0,0,0,0,0,0,0,0,0,0,0,0,0,0,0,0,0,0,0,0,0,0,0,0,0,0,0,0,0,0],"sum_hessian":[1.7750114E2,9.542668E0,1.6795847E2,8.5686104E1,8.227237E1,6.6036934E1,1.9649166E1,1.353626E1,6.873611E1,6.455253E1,1.4844037E0,1.8237827E1,1.4113389E0,7.465855E0,6.0704045E0,3.7497265E1,3.1238848E1,2.7307804E1,3.7244728E1,7.2883954E0,1.0949431E1,5.4293056E0,2.0365496E0,1.4702091E0,4.6001954E0,2.180065E1,1.5696613E1,3.6438036E0,2.7595043E1,4.8846145E0,2.242319E1,5.0269785E0,3.221775E1,3.8594327E0,3.4289627E0,1.697994E0,9.251437E0,4.028012E0,1.4012938E0,1.745211E0,2.8549845E0,1.8271393E1,3.5292575E0,2.8236609E0,1.2872952E1,1.2977749E0,2.3460286E0,2.3926876E1,3.668167E0],"tree_param":{"num_deleted":"0","num_feature":"16","num_nodes":"49","size_leaf_vector":"1"}},{"base_weights":[-2.7230233E-2,-9.0137444E-2,2.313814E-2,-8.1858E-2,4.9682796E-2,7.458667E-2,-7.9738066E-2,2.6710976E-2,4.2698056E-1,3.5178462E-1,-2.984587E-2,-5.462675E-2,5.12402E-1,9.150435E-2,6.2929005E-3,6.3618454E-3,-2.345473E-2,9.077353E-2,1.6053647E-2],"categories":[],"categories_nodes":[],"categories_segments":[],"categories_sizes":[],"default_left":[0,0,0,0,0,0,0,0,0,0,0,0,0,0,0,0,0,0,0],"id":53,"left_children":[1,-1,3,-1,5,7,-1,9,11,13,15,-1,17,-1,-1,-1,-1,-1,-1],"loss_changes":[7.8982162E0,0E0,3.8421223E0,0E0,3.5587604E0,2.7226887E0,0E0,2.6531982E0,1.8858335E0,3.4210072E0,2.375093E0,0E0,2.396286E0,0E0,0E0,0E0,0E0,0E0,0E0],"parents":[2147483647,0,0,2,2,4,4,5,5,7,7,8,8,9,9,10,10,12,12],"right_children":[2,-1,4,-1,6,8,-1,10,12,14,16,-1,18,-1,-1,-1,-1,-1,-1],"split_conditions":[6.51E2,-9.0137444E-2,1.3E1,-8.1858E-2,4.0125453E-1,1.42E2,-7.9738066E-2,6.69E2,7.7417695E3,1.5234584E4,6.8E1,-5.462675E-2,7.5440817E0,9.150435E-2,6.2929005E-3,6.3618454E-3,-2.345473E-2,9.077353E-2,1.6053647E-2],"split_indices":[3,0,4,0,8,4,0,3,2,2,4,0,6,0,0,0,0,0,0],"split_type":[0,0,0,0,0,0,0,0,0,0,0,0,0,0,0,0,0,0,0],"sum_hessian":[1.779121E2,8.772338E0,1.6913976E2,4.258758E0,1.64881E2,1.6105782E2,3.8231928E0,1.4274103E2,1.8316778E1,2.038033E1,1.223607E2,1.0426291E0,1.7274149E1,6.1738005E0,1.4206528E1,8.447816E1,3.7882545E1,7.3906813E0,9.883469E0],"tree_param":{"num_deleted":"0","num_feature":"16","num_nodes":"19","size_leaf_vector":"1"}},{"base_weights":[-6.870973E-2,-8.927459E-2,-2.3070568E-2,-5.2925116E-1,3.943153E-3,4.375851E-1,-1.004989E0,-4.1027814E-2,3.5413617E-1,1.2214696E-4,6.1762094E-2,-1.2944262E0,8.325386E-3,2.810628E-1,-9.0756774E-2,7.541971E-1,-6.1862063E-2,-3.804944E-2,-1.7954263E-1,5.4304147E-1,-6.677539E-2,-5.485142E-1,-4.1252393E-2,1.8230379E-2,8.447128E-2,-3.609689E-1,7.0586324E-2,-2.7712403E-2,7.099559E-2,5.3020496E-2,-6.183796E-2,-1.4923583E-1,-1.2402071E-2,-9.574668E-4,-9.428388E-2,4.2659607E-2,-8.821569E-2],"categories":[],"categories_nodes":[],"categories_segments":[],"categories_sizes":[],"default_left":[0,0,0,0,0,0,0,0,0,0,0,0,0,0,0,0,0,0,0,0,0,0,0,0,0,0,0,0,0,0,0,0,0,0,0,0,0],"id":54,"left_children":[1,-1,3,5,7,9,11,13,15,-1,-1,17,-1,19,21,23,25,-1,-1,27,29,31,33,-1,-1,35,-1,-1,-1,-1,-1,-1,-1,-1,-1,-1,-1],"loss_changes":[6.478075E0,0E0,2.2549458E0,4.282572E0,2.4933844E0,2.704298E-1,1.967001E0,2.2740984E0,3.0450861E0,0E0,0E0,1.4794478E0,0E0,1.7694776E0,2.7503023E0,3.2535744E-1,2.4952292E0,0E0,0E0,1.6969285E0,3.3117952E0,4.5669003E0,3.1755843E0,0E0,0E0,3.529887E0,0E0,0E0,0E0,0E0,0E0,0E0,0E0,0E0,0E0,0E0,0E0],"parents":[2147483647,0,0,2,2,3,3,4,4,5,5,6,6,7,7,8,8,11,11,13,13,14,14,15,15,16,16,19,19,20,20,21,21,22,22,25,25],"right_children":[2,-1,4,6,8,10,12,14,16,-1,-1,18,-1,20,22,24,26,-1,-1,28,30,32,34,-1,-1,36,-1,-1,-1,-1,-1,-1,-1,-1,-1,-1,-1],"split_conditions":[6.51E2,-8.927459E-2,6.3451206E3,3.6E1,8.12E2,7.7174673E0,7.2E1,4.8413806E0,1E0,1.2214696E-4,6.1762094E-2,6E1,8.325386E-3,3E0,5.755086E0,8.23E2,1.0024295E5,-3.804944E-2,-1.7954263E-1,1.0870818E4,5.9700094E4,3E1,8.02E2,1.8230379E-2,8.447128E-2,6.8799586E0,7.0586324E-2,-2.7712403E-2,7.099559E-2,5.3020496E-2,-6.183796E-2,-1.4923583E-1,-1.2402071E-2,-9.574668E-4,-9.428388E-2,4.2659607E-2,-8.821569E-2],"split_indices":[3,0,2,7,3,6,7,6,13,0,0,7,0,14,6,3,1,0,0,2,1,0,3,0,0,6,0,0,0,0,0,0,0,0,0,0,0],"split_type":[0,0,0,0,0,0,0,0,0,0,0,0,0,0,0,0,0,0,0,0,0,0,0,0,0,0,0,0,0,0,0,0,0,0,0,0,0],"sum_hessian":[1.7179874E2,8.041672E0,1.6375706E2,7.354636E0,1.5640242E2,2.451889E0,4.9027476E0,1.3938568E2,1.7016743E1,1.0101976E0,1.4416913E0,3.7230678E0,1.1796796E0,1.801995E1,1.2136573E2,8.260106E0,8.756636E0,1.9412606E0,1.7818072E0,9.958439E0,8.061512E0,1.08605175E1,1.1050521E2,1.5405709E0,6.7195354E0,6.6828203E0,2.0738156E0,1.5723122E0,8.386127E0,3.8901474E0,4.171365E0,2.5888016E0,8.271716E0,1.0773066E2,2.774555E0,2.7335925E0,3.9492276E0],"tree_param":{"num_deleted":"0","num_feature":"16","num_nodes":"37","size_leaf_vector":"1"}},{"base_weights":[1.092099E-2,-8.816194E-2,5.4718196E-2,8.882799E-2,-5.992564E-1,6.8277806E-2,7.7245295E-2,-2.5535426E-1,-9.271171E-2,1.21166274E-1,-1.4093624E-1,4.0821504E-2,-7.245863E-2,2.4204162E-1,-1.414053E-3,-8.969169E-2,1.1554306E-1,-3.734049E-2,2.9370118E-2,-1.8022144E-2,2.5408179E-2,5.1638402E-2,-1.3656906E-2],"categories":[],"categories_nodes":[],"categories_segments":[],"categories_sizes":[],"default_left":[0,0,0,0,0,0,0,0,0,0,0,0,0,0,0,0,0,0,0,0,0,0,0],"id":55,"left_children":[1,-1,3,5,7,9,-1,11,-1,13,15,-1,-1,17,19,-1,21,-1,-1,-1,-1,-1,-1],"loss_changes":[6.8829474E0,0E0,3.791991E0,2.1973925E0,7.14617E-1,1.7497506E0,0E0,2.0077507E0,0E0,1.8603188E0,6.3198423E0,0E0,0E0,2.1193666E0,2.9385285E0,0E0,2.5791874E0,0E0,0E0,0E0,0E0,0E0,0E0],"parents":[2147483647,0,0,2,2,3,3,4,4,5,5,7,7,9,9,10,10,13,13,14,14,16,16],"right_children":[2,-1,4,6,8,10,-1,12,-1,14,16,-1,-1,18,20,-1,22,-1,-1,-1,-1,-1,-1],"split_conditions":[6.51E2,-8.816194E-2,3.9637196E-1,3.9058754E-1,7.46E2,1E0,7.7245295E-2,4.0125453E-1,-9.271171E-2,7.25E2,2E0,4.0821504E-2,-7.245863E-2,2E0,2E0,-8.969169E-2,1E0,-3.734049E-2,2.9370118E-2,-1.8022144E-2,2.5408179E-2,5.1638402E-2,-1.3656906E-2],"split_indices":[3,0,8,8,3,10,0,8,0,3,10,0,0,5,11,0,9,0,0,0,0,0,0],"split_type":[0,0,0,0,0,0,0,0,0,0,0,0,0,0,0,0,0,0,0,0,0,0,0],"sum_hessian":[1.7384192E2,7.236673E0,1.6660524E2,1.591676E2,7.4376397E0,1.5559033E2,3.5772655E0,4.498201E0,2.9394388E0,1.245304E2,3.1059937E1,1.9171209E0,2.58108E0,6.221057E1,6.231983E1,7.2356377E0,2.3824299E1,4.33518E0,5.787539E1,3.6835396E1,2.5484436E1,8.794082E0,1.5030216E1],"tree_param":{"num_deleted":"0","num_feature":"16","num_nodes":"23","size_leaf_vector":"1"}},{"base_weights":[-5.3142857E-2,-8.7166294E-2,-1.4884869E-2,-1.6300757E-1,1.1384211E-1,-2.3808439E-1,4.9993172E-1,-1.8153791E-1,2.1108207E-1,-1.7937014E-1,-1.1204289E0,-1.19559295E-1,7.607223E-1,8.45281E-2,-1.0793012E0,3.2732305E-1,-2.4134706E-1,